{"learner":{"attributes":{"scikit_learn":"{\"_estimator_type\": \"regressor\"}"},"feature_names":["Temperature","W/C","Cement","Fly_ash","Slag","Aggregate","Sand","Water","Superplasticizer","Alkaline_liquid","Silica_fume","Nano_Silica","Metakaolin","Limestone_powder","Steel_fibre","Steel_fibre_length","PVA_fibre","PVA_fibre_length","PP_fibre","PP_fibre_length","Glass_fibre","Glass_fibre_length","Basalt_fibre","Basalt_fibre_length","FC_28","FC_90","Test_day","Cooling_Time","Category_Cementless_concrete","Category_Concrete","Category_Lightweight_concrete","Data_format_Code","Data_format_Experiment","Aggregate_type_Carbonate","Aggregate_type_Siliceous","Aggregate_type_Unknown"],"feature_types":["int","float","float","float","float","float","float","float","float","float","float","float","float","float","float","float","float","float","float","float","float","float","float","float","float","float","float","float","int","int","int","int","int","int","int","int"],"gradient_booster":{"model":{"gbtree_model_param":{"num_parallel_tree":"1","num_trees":"325"},"iteration_indptr":[0,1,2,3,4,5,6,7,8,9,10,11,12,13,14,15,16,17,18,19,20,21,22,23,24,25,26,27,28,29,30,31,32,33,34,35,36,37,38,39,40,41,42,43,44,45,46,47,48,49,50,51,52,53,54,55,56,57,58,59,60,61,62,63,64,65,66,67,68,69,70,71,72,73,74,75,76,77,78,79,80,81,82,83,84,85,86,87,88,89,90,91,92,93,94,95,96,97,98,99,100,101,102,103,104,105,106,107,108,109,110,111,112,113,114,115,116,117,118,119,120,121,122,123,124,125,126,127,128,129,130,131,132,133,134,135,136,137,138,139,140,141,142,143,144,145,146,147,148,149,150,151,152,153,154,155,156,157,158,159,160,161,162,163,164,165,166,167,168,169,170,171,172,173,174,175,176,177,178,179,180,181,182,183,184,185,186,187,188,189,190,191,192,193,194,195,196,197,198,199,200,201,202,203,204,205,206,207,208,209,210,211,212,213,214,215,216,217,218,219,220,221,222,223,224,225,226,227,228,229,230,231,232,233,234,235,236,237,238,239,240,241,242,243,244,245,246,247,248,249,250,251,252,253,254,255,256,257,258,259,260,261,262,263,264,265,266,267,268,269,270,271,272,273,274,275,276,277,278,279,280,281,282,283,284,285,286,287,288,289,290,291,292,293,294,295,296,297,298,299,300,301,302,303,304,305,306,307,308,309,310,311,312,313,314,315,316,317,318,319,320,321,322,323,324,325],"tree_info":[0,0,0,0,0,0,0,0,0,0,0,0,0,0,0,0,0,0,0,0,0,0,0,0,0,0,0,0,0,0,0,0,0,0,0,0,0,0,0,0,0,0,0,0,0,0,0,0,0,0,0,0,0,0,0,0,0,0,0,0,0,0,0,0,0,0,0,0,0,0,0,0,0,0,0,0,0,0,0,0,0,0,0,0,0,0,0,0,0,0,0,0,0,0,0,0,0,0,0,0,0,0,0,0,0,0,0,0,0,0,0,0,0,0,0,0,0,0,0,0,0,0,0,0,0,0,0,0,0,0,0,0,0,0,0,0,0,0,0,0,0,0,0,0,0,0,0,0,0,0,0,0,0,0,0,0,0,0,0,0,0,0,0,0,0,0,0,0,0,0,0,0,0,0,0,0,0,0,0,0,0,0,0,0,0,0,0,0,0,0,0,0,0,0,0,0,0,0,0,0,0,0,0,0,0,0,0,0,0,0,0,0,0,0,0,0,0,0,0,0,0,0,0,0,0,0,0,0,0,0,0,0,0,0,0,0,0,0,0,0,0,0,0,0,0,0,0,0,0,0,0,0,0,0,0,0,0,0,0,0,0,0,0,0,0,0,0,0,0,0,0,0,0,0,0,0,0,0,0,0,0,0,0,0,0,0,0,0,0,0,0,0,0,0,0,0,0,0,0,0,0,0,0,0,0,0,0,0,0,0,0,0,0,0,0,0,0,0,0,0,0,0,0,0,0],"trees":[{"base_weights":[2.2612698E-3,-1.3950817E1,8.684164E0,-7.878443E0,-1.6723541E1,2.1430866E1,4.0185556E0,-8.9469904E-1,7.020231E-1,-1.6520455E0,-7.99929E-1,3.5342321E0,6.2120706E-1,-8.324106E-2,1.8473884E0],"categories":[],"categories_nodes":[],"categories_segments":[],"categories_sizes":[],"default_left":[0,0,0,0,1,0,1,0,0,0,0,0,0,0,0],"id":0,"left_children":[1,3,5,7,9,11,13,-1,-1,-1,-1,-1,-1,-1,-1],"loss_changes":[3.537268E4,1.7539902E3,1.0618681E4,9.5654395E2,3.0411133E2,1.1092387E4,1.0103074E4,0E0,0E0,0E0,0E0,0E0,0E0,0E0,0E0],"parents":[2147483647,0,0,1,1,2,2,3,3,4,4,5,5,6,6],"right_children":[2,4,6,8,10,12,14,-1,-1,-1,-1,-1,-1,-1,-1],"split_conditions":[4.56E1,2E-1,2E-1,3.9E1,1.17E2,1.73E2,5.5E0,-8.9469904E-1,7.020231E-1,-1.6520455E0,-7.99929E-1,3.5342321E0,6.2120706E-1,-8.324106E-2,1.8473884E0],"split_indices":[24,27,27,24,3,7,8,0,0,0,0,0,0,0,0],"split_type":[0,0,0,0,0,0,0,0,0,0,0,0,0,0,0],"sum_hessian":[2.9E2,1.11E2,1.79E2,3.6E1,7.5E1,4.7E1,1.32E2,3.3E1,3E0,6.8E1,7E0,2.2E1,2.5E1,1.01E2,3.1E1],"tree_param":{"num_deleted":"0","num_feature":"36","num_nodes":"15","size_leaf_vector":"1"}},{"base_weights":[1.0190632E0,1.4417245E1,-1.3534813E1,5.194971E0,4.626071E0,-6.9408164E0,-2.0615723E1,-7.437371E-1,1.1828954E0,-1.0762641E0,5.271697E-1,-1.4403763E0,-2.4370255E0],"categories":[],"categories_nodes":[],"categories_segments":[],"categories_sizes":[],"default_left":[0,1,0,0,0,0,0,0,0,0,0,0,0],"id":1,"left_children":[1,3,5,7,-1,9,11,-1,-1,-1,-1,-1,-1],"loss_changes":[5.6938816E4,4.7997406E4,6.3937188E3,1.1611384E4,0E0,4.155205E3,1.4616699E3,0E0,0E0,0E0,0E0,0E0,0E0],"parents":[2147483647,0,0,1,1,2,2,3,3,5,5,6,6],"right_children":[2,4,6,8,-1,10,12,-1,-1,-1,-1,-1,-1],"split_conditions":[4.4E2,7.414E1,8E2,3.9E1,4.626071E0,7.14E1,4E-1,-7.437371E-1,1.1828954E0,-1.0762641E0,5.271697E-1,-1.4403763E0,-2.4370255E0],"split_indices":[0,24,0,24,0,24,1,0,0,0,0,0,0],"split_type":[0,0,0,0,0,0,0,0,0,0,0,0,0],"sum_hessian":[2.9E2,1.51E2,1.39E2,1.2E2,3.1E1,7.3E1,6.6E1,4.3E1,7.7E1,5.4E1,1.9E1,3.4E1,3.2E1],"tree_param":{"num_deleted":"0","num_feature":"36","num_nodes":"13","size_leaf_vector":"1"}},{"base_weights":[1.785729E-1,-1.1160397E1,7.418044E0,-6.639572E0,-1.2940477E1,1.2918076E1,4.055987E-1,-1.0548533E0,-3.2060644E-1,-1.3752027E0,-7.459845E-1,8.998323E-1,2.068349E0,9.8277944E-1,-2.1832982E-1],"categories":[],"categories_nodes":[],"categories_segments":[],"categories_sizes":[],"default_left":[0,0,0,0,0,0,0,0,0,0,0,0,0,0,0],"id":2,"left_children":[1,3,5,7,9,11,13,-1,-1,-1,-1,-1,-1,-1,-1],"loss_changes":[2.2328674E4,7.671094E2,6.39716E3,4.3066736E2,4.8503516E2,2.6276328E3,2.02367E3,0E0,0E0,0E0,0E0,0E0,0E0,0E0,0E0],"parents":[2147483647,0,0,1,1,2,2,3,3,4,4,5,5,6,6],"right_children":[2,4,6,8,10,12,14,-1,-1,-1,-1,-1,-1,-1,-1],"split_conditions":[4.56E1,2E-1,4E-1,2.73E2,3.54E1,5.55E0,2E-1,-1.0548533E0,-3.2060644E-1,-1.3752027E0,-7.459845E-1,8.998323E-1,2.068349E0,9.8277944E-1,-2.1832982E-1],"split_indices":[24,27,1,2,24,8,27,0,0,0,0,0,0,0,0],"split_type":[0,0,0,0,0,0,0,0,0,0,0,0,0,0,0],"sum_hessian":[2.7E2,1.05E2,1.65E2,3.1E1,7.4E1,9.2E1,7.3E1,1.2E1,1.9E1,5.5E1,1.9E1,6.8E1,2.4E1,1.5E1,5.8E1],"tree_param":{"num_deleted":"0","num_feature":"36","num_nodes":"15","size_leaf_vector":"1"}},{"base_weights":[-8.740356E-1,1.1567668E1,-1.2812244E1,3.337494E1,3.1499677E0,-5.5756216E0,-1.9785067E1,2.583918E-1,3.3897302E0,6.4462596E-1,-1.7762709E-1,5.647917E-1,-9.6361935E-1,-1.574667E0,-2.3050368E0],"categories":[],"categories_nodes":[],"categories_segments":[],"categories_sizes":[],"default_left":[0,0,0,0,1,0,0,0,0,0,0,0,0,0,0],"id":3,"left_children":[1,3,5,7,9,11,13,-1,-1,-1,-1,-1,-1,-1,-1],"loss_changes":[4.366799E4,2.6328527E4,7.4586406E3,2.8581875E3,1.9415709E3,4.0392048E3,6.8844727E2,0E0,0E0,0E0,0E0,0E0,0E0,0E0,0E0],"parents":[2147483647,0,0,1,1,2,2,3,3,4,4,5,5,6,6],"right_children":[2,4,6,8,10,12,14,-1,-1,-1,-1,-1,-1,-1,-1],"split_conditions":[4.4E2,4E-1,8E2,3.01E2,5E-1,3.625E-1,1E3,2.583918E-1,3.3897302E0,6.4462596E-1,-1.7762709E-1,5.647917E-1,-9.6361935E-1,-1.574667E0,-2.3050368E0],"split_indices":[0,1,0,6,1,1,0,0,0,0,0,0,0,0,0],"split_type":[0,0,0,0,0,0,0,0,0,0,0,0,0,0,0],"sum_hessian":[2.92E2,1.43E2,1.49E2,3.9E1,1.04E2,7.4E1,7.5E1,3E0,3.6E1,6E1,4.4E1,2.1E1,5.3E1,4.7E1,2.8E1],"tree_param":{"num_deleted":"0","num_feature":"36","num_nodes":"15","size_leaf_vector":"1"}},{"base_weights":[4.0943688E-1,1.1681232E1,-1.1384149E1,3.1364555E1,2.8869617E0,-5.1074834E0,-1.8106737E1,2.474346E0,4.6600847E0,7.1912867E-1,-2.4603477E-1,3.5772213E-1,-8.9558816E-1,-1.3546008E0,-2.011502E0],"categories":[],"categories_nodes":[],"categories_segments":[],"categories_sizes":[],"default_left":[0,0,0,1,1,0,0,0,0,0,0,0,0,0,0],"id":4,"left_children":[1,3,5,7,9,11,13,-1,-1,-1,-1,-1,-1,-1,-1],"loss_changes":[4.1342793E4,2.743243E4,6.3212266E3,3.2957031E3,2.8839978E3,3.1255266E3,5.656797E2,0E0,0E0,0E0,0E0,0E0,0E0,0E0,0E0],"parents":[2147483647,0,0,1,1,2,2,3,3,4,4,5,5,6,6],"right_children":[2,4,6,8,10,12,14,-1,-1,-1,-1,-1,-1,-1,-1],"split_conditions":[4.4E2,4E-1,8E2,8.4E1,5E-1,4E-1,4E-1,2.474346E0,4.6600847E0,7.1912867E-1,-2.4603477E-1,3.5772213E-1,-8.9558816E-1,-1.3546008E0,-2.011502E0],"split_indices":[0,1,0,25,1,1,1,0,0,0,0,0,0,0,0],"split_type":[0,0,0,0,0,0,0,0,0,0,0,0,0,0,0],"sum_hessian":[3.09E2,1.58E2,1.51E2,4.8E1,1.1E2,7.9E1,7.2E1,3.9E1,9E0,5.9E1,5.1E1,2.6E1,5.3E1,3.5E1,3.7E1],"tree_param":{"num_deleted":"0","num_feature":"36","num_nodes":"15","size_leaf_vector":"1"}},{"base_weights":[8.3020985E-1,1.0988046E1,-9.963838E0,3.9688363E0,3.3076656E1,-4.050437E0,-1.6241762E1,-5.0210905E-1,9.6424896E-1,1.7900871E0,3.441841E0,-7.0027816E-1,5.378648E-1,-1.1375831E0,-1.72287E0],"categories":[],"categories_nodes":[],"categories_segments":[],"categories_sizes":[],"default_left":[0,1,0,0,0,1,0,0,0,0,0,0,0,0,0],"id":5,"left_children":[1,3,5,7,9,11,13,-1,-1,-1,-1,-1,-1,-1,-1],"loss_changes":[3.278345E4,2.3745588E4,5.317176E3,6.8476553E3,1.02328516E3,2.5134224E3,3.5833008E2,0E0,0E0,0E0,0E0,0E0,0E0,0E0,0E0],"parents":[2147483647,0,0,1,1,2,2,3,3,4,4,5,5,6,6],"right_children":[2,4,6,8,10,12,14,-1,-1,-1,-1,-1,-1,-1,-1],"split_conditions":[4.4E2,6.85E1,8E2,3.85E1,7.6E1,7.14E1,3.4545454E-1,-5.0210905E-1,9.6424896E-1,1.7900871E0,3.441841E0,-7.0027816E-1,5.378648E-1,-1.1375831E0,-1.72287E0],"split_indices":[0,24,0,24,24,24,1,0,0,0,0,0,0,0,0],"split_type":[0,0,0,0,0,0,0,0,0,0,0,0,0,0,0],"sum_hessian":[2.97E2,1.53E2,1.44E2,1.17E2,3.6E1,7.5E1,6.9E1,4.7E1,7E1,8E0,2.8E1,5.6E1,1.9E1,2.4E1,4.5E1],"tree_param":{"num_deleted":"0","num_feature":"36","num_nodes":"15","size_leaf_vector":"1"}},{"base_weights":[-2.1855068E-1,8.819266E0,-9.919306E0,5.4013796E-2,2.2905313E1,-5.0139074E0,-1.4210022E1,-5.477536E-1,3.4450802E-1,1.3696738E0,3.1068022E0,-8.147292E-1,4.5759675E-1,-1.1415718E0,-1.8204384E0],"categories":[],"categories_nodes":[],"categories_segments":[],"categories_sizes":[],"default_left":[0,0,0,0,1,0,0,0,0,0,0,0,0,0,0],"id":6,"left_children":[1,3,5,7,9,11,13,-1,-1,-1,-1,-1,-1,-1,-1],"loss_changes":[2.4723775E4,1.8025059E4,2.7912354E3,1.9241439E3,4.2049355E3,2.3371626E3,5.4668945E2,0E0,0E0,0E0,0E0,0E0,0E0,0E0,0E0],"parents":[2147483647,0,0,1,1,2,2,3,3,4,4,5,5,6,6],"right_children":[2,4,6,8,10,12,14,-1,-1,-1,-1,-1,-1,-1,-1],"split_conditions":[4.4E2,6E1,8E2,3.23E1,7.6E1,7.14E1,1E3,-5.477536E-1,3.4450802E-1,1.3696738E0,3.1068022E0,-8.147292E-1,4.5759675E-1,-1.1415718E0,-1.8204384E0],"split_indices":[0,24,0,24,24,24,0,0,0,0,0,0,0,0,0],"split_type":[0,0,0,0,0,0,0,0,0,0,0,0,0,0,0],"sum_hessian":[2.8E2,1.45E2,1.35E2,9E1,5.5E1,6.4E1,7.1E1,3.4E1,5.6E1,3.1E1,2.4E1,4.7E1,1.7E1,5.2E1,1.9E1],"tree_param":{"num_deleted":"0","num_feature":"36","num_nodes":"15","size_leaf_vector":"1"}},{"base_weights":[9.400465E-2,8.03091E0,-8.718986E0,2.6739318E0,2.9548256E1,-2.978243E0,-1.3211963E1,-2.99264E-1,8.2923E-1,2.451021E0,4.0479016E0,-6.5455943E-1,5.141546E-1,-1.0353448E0,-1.5849744E0],"categories":[],"categories_nodes":[],"categories_segments":[],"categories_sizes":[],"default_left":[0,1,0,0,0,1,0,0,0,0,0,0,0,0,0],"id":7,"left_children":[1,3,5,7,9,11,13,-1,-1,-1,-1,-1,-1,-1,-1],"loss_changes":[2.0075111E4,1.7326447E4,3.468502E3,4.3548906E3,3.4692578E2,2.0538154E3,4.2764453E2,0E0,0E0,0E0,0E0,0E0,0E0,0E0,0E0],"parents":[2147483647,0,0,1,1,2,2,3,3,4,4,5,5,6,6],"right_children":[2,4,6,8,10,12,14,-1,-1,-1,-1,-1,-1,-1,-1],"split_conditions":[5E2,7.14E1,8E2,4.7E1,1.18E3,4.453E2,2.1E2,-2.99264E-1,8.2923E-1,2.451021E0,4.0479016E0,-6.5455943E-1,5.141546E-1,-1.0353448E0,-1.5849744E0],"split_indices":[0,24,0,24,5,2,7,0,0,0,0,0,0,0,0],"split_type":[0,0,0,0,0,0,0,0,0,0,0,0,0,0,0],"sum_hessian":[2.85E2,1.5E2,1.35E2,1.21E2,2.9E1,6E1,7.5E1,6.2E1,5.9E1,2.5E1,4E0,4.1E1,1.9E1,4.8E1,2.7E1],"tree_param":{"num_deleted":"0","num_feature":"36","num_nodes":"15","size_leaf_vector":"1"}},{"base_weights":[7.1931255E-1,7.910306E0,-6.9941936E0,2.5437336E0,2.6697538E1,-2.8596697E0,-1.1523899E1,-5.272236E-1,6.781528E-1,2.1421309E0,4.266005E0,2.4095334E-1,-5.700283E-1,-8.417951E-1,-1.4211693E0],"categories":[],"categories_nodes":[],"categories_segments":[],"categories_sizes":[],"default_left":[0,1,0,0,0,0,0,0,0,0,0,0,0,0,0],"id":8,"left_children":[1,3,5,7,9,11,13,-1,-1,-1,-1,-1,-1,-1,-1],"loss_changes":[1.5974577E4,1.4954722E4,2.5702622E3,4.419385E3,1.4523086E3,1.2781519E3,4.7224902E2,0E0,0E0,0E0,0E0,0E0,0E0,0E0,0E0],"parents":[2147483647,0,0,1,1,2,2,3,3,4,4,5,5,6,6],"right_children":[2,4,6,8,10,12,14,-1,-1,-1,-1,-1,-1,-1,-1],"split_conditions":[4.4E2,6.85E1,8E2,3.3E1,9.4E1,4E-1,2.1E2,-5.272236E-1,6.781528E-1,2.1421309E0,4.266005E0,2.4095334E-1,-5.700283E-1,-8.417951E-1,-1.4211693E0],"split_indices":[0,24,0,24,24,1,7,0,0,0,0,0,0,0,0],"split_type":[0,0,0,0,0,0,0,0,0,0,0,0,0,0,0],"sum_hessian":[2.86E2,1.48E2,1.38E2,1.16E2,3.2E1,7.3E1,6.5E1,4.2E1,7.4E1,2.8E1,4E0,2.7E1,4.6E1,3.9E1,2.6E1],"tree_param":{"num_deleted":"0","num_feature":"36","num_nodes":"15","size_leaf_vector":"1"}},{"base_weights":[3.5249165E-1,-6.6776395E0,4.3939013E0,-7.655331E0,-3.6491556E0,3.0554228E0,1.6490736E1,-5.210675E-1,-8.1420946E-1,2.861976E-1,-4.5819947E-1,8.6947376E-1,8.193798E-2,1.8110659E0,1.084104E0],"categories":[],"categories_nodes":[],"categories_segments":[],"categories_sizes":[],"default_left":[0,0,1,0,0,0,0,0,0,0,0,0,0,0,0],"id":9,"left_children":[1,3,5,7,9,11,13,-1,-1,-1,-1,-1,-1,-1,-1],"loss_changes":[8.638068E3,3.0072705E2,3.0745461E3,1.2087451E2,2.4446136E2,2.3394187E3,3.3212402E1,0E0,0E0,0E0,0E0,0E0,0E0,0E0,0E0],"parents":[2147483647,0,0,1,1,2,2,3,3,4,4,5,5,6,6],"right_children":[2,4,6,8,10,12,14,-1,-1,-1,-1,-1,-1,-1,-1],"split_conditions":[4.56E1,3.35E1,8.761E1,2E-1,3.54E1,2E-1,2E1,-5.210675E-1,-8.1420946E-1,2.861976E-1,-4.5819947E-1,8.6947376E-1,8.193798E-2,1.8110659E0,1.084104E0],"split_indices":[24,24,24,27,24,27,8,0,0,0,0,0,0,0,0],"split_type":[0,0,0,0,0,0,0,0,0,0,0,0,0,0,0],"sum_hessian":[3.02E2,1.1E2,1.92E2,8.2E1,2.8E1,1.74E2,1.8E1,2.7E1,5.5E1,4E0,2.4E1,4.5E1,1.29E2,1E1,8E0],"tree_param":{"num_deleted":"0","num_feature":"36","num_nodes":"15","size_leaf_vector":"1"}},{"base_weights":[-5.019327E-1,-4.000213E0,5.6322393E0,-5.2393956E0,4.7845073E0,1.3232595E1,3.542897E0,-7.137901E-1,-3.1212825E-1,2.944948E-1,1.5188555E0,1.5225011E0,6.357771E-1,1.0050131E0,9.078803E-2],"categories":[],"categories_nodes":[],"categories_segments":[],"categories_sizes":[],"default_left":[1,1,0,0,1,0,0,0,0,0,0,0,0,0,0],"id":10,"left_children":[1,3,5,7,9,11,13,-1,-1,-1,-1,-1,-1,-1,-1],"loss_changes":[6.6748364E3,2.1804707E3,1.7475295E3,7.519614E2,4.213863E2,3.3667773E2,1.6336605E3,0E0,0E0,0E0,0E0,0E0,0E0,0E0,0E0],"parents":[2147483647,0,0,1,1,2,2,3,3,4,4,5,5,6,6],"right_children":[2,4,6,8,10,12,14,-1,-1,-1,-1,-1,-1,-1,-1],"split_conditions":[5.5E1,5.29E1,2.8723404E-1,3.3E1,5E1,2.25E1,2E-1,-7.137901E-1,-3.1212825E-1,2.944948E-1,1.5188555E0,1.5225011E0,6.357771E-1,1.0050131E0,9.078803E-2],"split_indices":[24,25,1,24,24,10,27,0,0,0,0,0,0,0,0],"split_type":[0,0,0,0,0,0,0,0,0,0,0,0,0,0,0],"sum_hessian":[3.09E2,1.97E2,1.12E2,1.73E2,2.4E1,2.3E1,8.9E1,7.8E1,9.5E1,2.2E1,2E0,1.5E1,8E0,2.3E1,6.6E1],"tree_param":{"num_deleted":"0","num_feature":"36","num_nodes":"15","size_leaf_vector":"1"}},{"base_weights":[-3.323101E-1,9.573052E0,-5.1522098E0,-1.0949548E-1,1.5520398E1,-1.4791397E0,-1.0968607E1,-5.481158E-1,1.3832922E-1,1.0228369E0,2.3108597E0,-4.1283482E-1,9.9246913E-1,-8.5496974E-1,-1.4017912E0],"categories":[],"categories_nodes":[],"categories_segments":[],"categories_sizes":[],"default_left":[0,0,0,0,1,1,0,0,0,0,0,0,0,0,0],"id":11,"left_children":[1,3,5,7,9,11,13,-1,-1,-1,-1,-1,-1,-1,-1],"loss_changes":[1.3417322E4,5.2995615E3,4.0215786E3,3.2929196E2,2.1255752E3,4.0735913E3,4.0958496E2,0E0,0E0,0E0,0E0,0E0,0E0,0E0,0E0],"parents":[2147483647,0,0,1,1,2,2,3,3,4,4,5,5,6,6],"right_children":[2,4,6,8,10,12,14,-1,-1,-1,-1,-1,-1,-1,-1],"split_conditions":[3E2,4.7E1,8E2,2.8E1,7.6E1,7.6E1,1E3,-5.481158E-1,1.3832922E-1,1.0228369E0,2.3108597E0,-4.1283482E-1,9.9246913E-1,-8.5496974E-1,-1.4017912E0],"split_indices":[0,24,0,24,24,24,0,0,0,0,0,0,0,0,0],"split_type":[0,0,0,0,0,0,0,0,0,0,0,0,0,0,0],"sum_hessian":[2.79E2,9.1E1,1.88E2,3.5E1,5.6E1,1.16E2,7.2E1,7E0,2.8E1,3.8E1,1.8E1,9.4E1,2.2E1,5E1,2.2E1],"tree_param":{"num_deleted":"0","num_feature":"36","num_nodes":"15","size_leaf_vector":"1"}},{"base_weights":[-2.1357158E-1,-4.839793E0,2.753909E0,-4.2318153E0,-8.205841E-1,1.7368124E0,1.7297688E1,-1.8528672E-1,-4.7826368E-1,5.340327E-1,5.292799E-2,1.9343837E0,8.9649844E-1],"categories":[],"categories_nodes":[],"categories_segments":[],"categories_sizes":[],"default_left":[0,1,1,0,0,0,0,0,0,0,0,0,0],"id":12,"left_children":[1,3,5,7,-1,9,11,-1,-1,-1,-1,-1,-1],"loss_changes":[3.8297742E3,2.1670728E2,2.4846704E3,1.6868054E2,0E0,7.321515E2,7.589819E1,0E0,0E0,0E0,0E0,0E0,0E0],"parents":[2147483647,0,0,1,1,2,2,3,3,5,5,6,6],"right_children":[2,4,6,8,-1,10,12,-1,-1,-1,-1,-1,-1],"split_conditions":[4.56E1,6.4193547E-1,9.124E1,2E-1,-8.205841E-1,2E-1,2.8723404E-1,-1.8528672E-1,-4.7826368E-1,5.340327E-1,5.292799E-2,1.9343837E0,8.9649844E-1],"split_indices":[24,1,24,27,0,27,1,0,0,0,0,0,0],"split_type":[0,0,0,0,0,0,0,0,0,0,0,0,0],"sum_hessian":[2.77E2,1.08E2,1.69E2,9.5E1,1.3E1,1.59E2,1E1,2.6E1,6.9E1,3.6E1,1.23E2,6E0,4E0],"tree_param":{"num_deleted":"0","num_feature":"36","num_nodes":"13","size_leaf_vector":"1"}},{"base_weights":[-3.1183004E-2,6.116579E0,-6.6796427E0,4.082846E0,2.6609165E1,-2.7142148E0,-1.0111695E1,1.8029574E-1,1.2795992E0,1.7415786E0,3.4183862E0,-5.2904665E-1,1.1145005E-1,-7.780504E-1,-1.2646056E0],"categories":[],"categories_nodes":[],"categories_segments":[],"categories_sizes":[],"default_left":[0,1,0,1,0,1,0,0,0,0,0,0,0,0,0],"id":13,"left_children":[1,3,5,7,9,11,13,-1,-1,-1,-1,-1,-1,-1,-1],"loss_changes":[1.1485339E4,5.9761206E3,1.8098452E3,2.72713E3,3.4980566E2,7.2149695E2,3.3288525E2,0E0,0E0,0E0,0E0,0E0,0E0,0E0,0E0],"parents":[2147483647,0,0,1,1,2,2,3,3,4,4,5,5,6,6],"right_children":[2,4,6,8,10,12,14,-1,-1,-1,-1,-1,-1,-1,-1],"split_conditions":[5E2,7E1,8E2,7.5E0,1.255E3,4.36E2,1E3,1.8029574E-1,1.2795992E0,1.7415786E0,3.4183862E0,-5.2904665E-1,1.1145005E-1,-7.780504E-1,-1.2646056E0],"split_indices":[0,25,0,10,5,2,0,0,0,0,0,0,0,0,0],"split_type":[0,0,0,0,0,0,0,0,0,0,0,0,0,0,0],"sum_hessian":[2.79E2,1.45E2,1.34E2,1.33E2,1.2E1,6.3E1,7.1E1,1.09E2,2.4E1,8E0,4E0,3.6E1,2.7E1,4.7E1,2.4E1],"tree_param":{"num_deleted":"0","num_feature":"36","num_nodes":"15","size_leaf_vector":"1"}},{"base_weights":[3.958044E-2,5.7848387E0,-6.259218E0,1.9635054E0,1.8066187E1,-3.0944796E0,-8.985386E0,7.43164E-2,1.3399303E0,1.4225004E0,3.159349E0,-3.8306132E-1,6.402079E-1,-6.8593127E-1,-1.1731995E0],"categories":[],"categories_nodes":[],"categories_segments":[],"categories_sizes":[],"default_left":[0,1,0,1,1,1,0,0,0,0,0,0,0,0,0],"id":14,"left_children":[1,3,5,7,9,11,13,-1,-1,-1,-1,-1,-1,-1,-1],"loss_changes":[1.0241288E4,6.9103335E3,1.1369224E3,1.6261973E3,1.130291E3,6.261489E2,3.3724756E2,0E0,0E0,0E0,0E0,0E0,0E0,0E0,0E0],"parents":[2147483647,0,0,1,1,2,2,3,3,4,4,5,5,6,6],"right_children":[2,4,6,8,10,12,14,-1,-1,-1,-1,-1,-1,-1,-1],"split_conditions":[5E2,6.85E1,8E2,6.9E1,1.308E3,5.29E1,1E3,7.43164E-2,1.3399303E0,1.4225004E0,3.159349E0,-3.8306132E-1,6.402079E-1,-6.8593127E-1,-1.1731995E0],"split_indices":[0,24,0,25,5,25,0,0,0,0,0,0,0,0,0],"split_type":[0,0,0,0,0,0,0,0,0,0,0,0,0,0,0],"sum_hessian":[2.81E2,1.47E2,1.34E2,1.13E2,3.4E1,6.3E1,7.1E1,1.04E2,9E0,3E1,4E0,5.8E1,5E0,4.9E1,2.2E1],"tree_param":{"num_deleted":"0","num_feature":"36","num_nodes":"15","size_leaf_vector":"1"}},{"base_weights":[7.444526E-2,7.6068163E0,-3.8316226E0,3.534761E0,1.7660713E1,-8.99964E-1,-8.178694E0,-8.013168E-2,6.232412E-1,1.8015987E0,7.203268E-1,-3.5343903E-1,6.7747444E-1,-6.3623E-1,-1.0317353E0],"categories":[],"categories_nodes":[],"categories_segments":[],"categories_sizes":[],"default_left":[0,1,0,0,0,0,0,0,0,0,0,0,0,0,0],"id":15,"left_children":[1,3,5,7,9,11,13,-1,-1,-1,-1,-1,-1,-1,-1],"loss_changes":[8.443825E3,3.9496958E3,2.4012798E3,9.526362E2,2.3805762E2,2.625746E3,2.2832227E2,0E0,0E0,0E0,0E0,0E0,0E0,0E0,0E0],"parents":[2147483647,0,0,1,1,2,2,3,3,4,4,5,5,6,6],"right_children":[2,4,6,8,10,12,14,-1,-1,-1,-1,-1,-1,-1,-1],"split_conditions":[3E2,6.1E1,8E2,3.85E1,1E2,7.414E1,1E3,-8.013168E-2,6.232412E-1,1.8015987E0,7.203268E-1,-3.5343903E-1,6.7747444E-1,-6.3623E-1,-1.0317353E0],"split_indices":[0,24,0,24,0,24,0,0,0,0,0,0,0,0,0],"split_type":[0,0,0,0,0,0,0,0,0,0,0,0,0,0,0],"sum_hessian":[2.85E2,9.7E1,1.88E2,7E1,2.7E1,1.13E2,7.5E1,2.9E1,4.1E1,2.3E1,4E0,8.4E1,2.9E1,5.1E1,2.4E1],"tree_param":{"num_deleted":"0","num_feature":"36","num_nodes":"15","size_leaf_vector":"1"}},{"base_weights":[-1.902926E-2,6.7506676E0,-3.3852773E0,-8.0691266E-1,1.0863371E1,-1.0612531E0,-7.209589E0,-2.4035311E-1,1.9424215E-1,7.5396407E-1,1.4572884E0,4.8118824E-1,-3.6103788E-1,-5.541237E-1,-9.7071743E-1],"categories":[],"categories_nodes":[],"categories_segments":[],"categories_sizes":[],"default_left":[0,0,0,0,1,0,0,0,0,0,0,0,0,0,0],"id":16,"left_children":[1,3,5,7,9,11,13,-1,-1,-1,-1,-1,-1,-1,-1],"loss_changes":[6.2441074E3,2.8372354E3,1.6188152E3,1.6839362E2,6.521372E2,1.9617494E3,2.2509302E2,0E0,0E0,0E0,0E0,0E0,0E0,0E0,0E0],"parents":[2147483647,0,0,1,1,2,2,3,3,4,4,5,5,6,6],"right_children":[2,4,6,8,10,12,14,-1,-1,-1,-1,-1,-1,-1,-1],"split_conditions":[3E2,4.7E1,8E2,2.99E1,7E1,3.625E-1,1E3,-2.4035311E-1,1.9424215E-1,7.5396407E-1,1.4572884E0,4.8118824E-1,-3.6103788E-1,-5.541237E-1,-9.7071743E-1],"split_indices":[0,24,0,24,24,1,0,0,0,0,0,0,0,0,0],"split_type":[0,0,0,0,0,0,0,0,0,0,0,0,0,0,0],"sum_hessian":[2.72E2,9E1,1.82E2,3.2E1,5.8E1,1.14E2,6.8E1,2E1,1.2E1,3.7E1,2.1E1,3.5E1,7.9E1,4.9E1,1.9E1],"tree_param":{"num_deleted":"0","num_feature":"36","num_nodes":"15","size_leaf_vector":"1"}},{"base_weights":[-2.882324E-1,4.4690804E0,-4.733197E0,9.93427E-1,1.2177574E1,-2.439935E0,-6.862896E0,-5.5107772E-2,7.3805386E-1,1.0021491E0,2.2649562E0,-3.4144586E-1,5.3010046E-1,-5.36973E-1,-8.9376795E-1],"categories":[],"categories_nodes":[],"categories_segments":[],"categories_sizes":[],"default_left":[0,1,0,1,1,1,0,0,0,0,0,0,0,0,0],"id":17,"left_children":[1,3,5,7,9,11,13,-1,-1,-1,-1,-1,-1,-1,-1],"loss_changes":[5.6460127E3,3.444077E3,6.5724097E2,9.68331E2,4.9690283E2,6.5669165E2,1.6460864E2,0E0,0E0,0E0,0E0,0E0,0E0,0E0,0E0],"parents":[2147483647,0,0,1,1,2,2,3,3,4,4,5,5,6,6],"right_children":[2,4,6,8,10,12,14,-1,-1,-1,-1,-1,-1,-1,-1],"split_conditions":[5E2,5.5E1,8E2,3.7E1,9.1E1,5.29E1,1E3,-5.5107772E-2,7.3805386E-1,1.0021491E0,2.2649562E0,-3.4144586E-1,5.3010046E-1,-5.36973E-1,-8.9376795E-1],"split_indices":[0,24,0,25,25,25,0,0,0,0,0,0,0,0,0],"split_type":[0,0,0,0,0,0,0,0,0,0,0,0,0,0,0],"sum_hessian":[2.65E2,1.28E2,1.37E2,8.9E1,3.9E1,6.7E1,7E1,7.3E1,1.6E1,3.6E1,3E0,5.9E1,8E0,5E1,2E1],"tree_param":{"num_deleted":"0","num_feature":"36","num_nodes":"15","size_leaf_vector":"1"}},{"base_weights":[1.4100511E-1,3.5065947E0,-4.566494E0,1.2571265E0,1.4555451E1,-2.5610718E-1,-5.7192154E0,-2.8848773E-1,2.4284449E-1,1.0831294E0,2.580933E0,3.798698E-1,-3.7288663E-1,-6.1322325E-1,-2.538155E-1],"categories":[],"categories_nodes":[],"categories_segments":[],"categories_sizes":[],"default_left":[0,1,0,0,0,0,0,0,0,0,0,0,0,0,0],"id":18,"left_children":[1,3,5,7,9,11,13,-1,-1,-1,-1,-1,-1,-1,-1],"loss_changes":[4.6740054E3,4.2565986E3,6.096824E2,8.1739496E2,8.3703174E2,4.397661E2,2.0517554E2,0E0,0E0,0E0,0E0,0E0,0E0,0E0,0E0],"parents":[2147483647,0,0,1,1,2,2,3,3,4,4,5,5,6,6],"right_children":[2,4,6,8,10,12,14,-1,-1,-1,-1,-1,-1,-1,-1],"split_conditions":[5.8E2,7.14E1,3.1454545E-1,2.99E1,1.255E3,8E2,8.247E1,-2.8848773E-1,2.4284449E-1,1.0831294E0,2.580933E0,3.798698E-1,-3.7288663E-1,-6.1322325E-1,-2.538155E-1],"split_indices":[0,24,1,24,5,0,24,0,0,0,0,0,0,0,0],"split_type":[0,0,0,0,0,0,0,0,0,0,0,0,0,0,0],"sum_hessian":[2.93E2,1.71E2,1.22E2,1.43E2,2.8E1,2.6E1,9.6E1,3.3E1,1.1E2,2.4E1,4E0,1.2E1,1.4E1,7.6E1,2E1],"tree_param":{"num_deleted":"0","num_feature":"36","num_nodes":"15","size_leaf_vector":"1"}},{"base_weights":[2.0544638E-1,6.3459225E0,-2.6320603E0,-9.694209E-2,9.842001E0,-3.775339E-1,-6.1407046E0,-1.9702168E-1,2.0271038E-1,6.878189E-1,1.2849417E0,-1.9946301E-1,9.7744507E-1,-6.328742E-1,-2.8084302E-1],"categories":[],"categories_nodes":[],"categories_segments":[],"categories_sizes":[],"default_left":[0,0,0,0,1,1,1,0,0,0,0,0,0,0,0],"id":19,"left_children":[1,3,5,7,9,11,13,-1,-1,-1,-1,-1,-1,-1,-1],"loss_changes":[5.017288E3,2.0507068E3,1.5560168E3,1.508426E2,4.6839307E2,2.2585776E3,1.1240698E2,0E0,0E0,0E0,0E0,0E0,0E0,0E0,0E0],"parents":[2147483647,0,0,1,1,2,2,3,3,4,4,5,5,6,6],"right_children":[2,4,6,8,10,12,14,-1,-1,-1,-1,-1,-1,-1,-1],"split_conditions":[3E2,5E1,8E2,2.99E1,7E1,5.29E1,7.5E0,-1.9702168E-1,2.0271038E-1,6.878189E-1,1.2849417E0,-1.9946301E-1,9.7744507E-1,-6.328742E-1,-2.8084302E-1],"split_indices":[0,24,0,24,24,25,10,0,0,0,0,0,0,0,0],"split_type":[0,0,0,0,0,0,0,0,0,0,0,0,0,0,0],"sum_hessian":[2.86E2,9E1,1.96E2,3.2E1,5.8E1,1.2E2,7.6E1,1.7E1,1.5E1,3.6E1,2.2E1,1.04E2,1.6E1,6.4E1,1.2E1],"tree_param":{"num_deleted":"0","num_feature":"36","num_nodes":"15","size_leaf_vector":"1"}},{"base_weights":[-6.7845486E-2,5.23746E0,-2.4254313E0,1.264717E0,8.54927E0,-3.563464E0,3.079209E0,-3.6241004E-1,1.785461E-1,1.0188066E0,3.8164225E-1,-5.1937306E-1,-1.811288E-1,7.131562E-1,-7.3108983E-1],"categories":[],"categories_nodes":[],"categories_segments":[],"categories_sizes":[],"default_left":[0,1,1,0,0,1,0,0,0,0,0,0,0,0,0],"id":20,"left_children":[1,3,5,7,9,11,13,-1,-1,-1,-1,-1,-1,-1,-1],"loss_changes":[3.7400017E3,1.1996289E3,1.3077158E3,1.429824E2,4.5535156E2,5.347295E2,1.7877635E3,0E0,0E0,0E0,0E0,0E0,0E0,0E0,0E0],"parents":[2147483647,0,0,1,1,2,2,3,3,4,4,5,5,6,6],"right_children":[2,4,6,8,10,12,14,-1,-1,-1,-1,-1,-1,-1,-1],"split_conditions":[3E2,4.56E1,5.29E1,2.8E1,1E2,6.95E2,1E3,-3.6241004E-1,1.785461E-1,1.0188066E0,3.8164225E-1,-5.1937306E-1,-1.811288E-1,7.131562E-1,-7.3108983E-1],"split_indices":[0,24,25,24,0,6,0,0,0,0,0,0,0,0,0],"split_type":[0,0,0,0,0,0,0,0,0,0,0,0,0,0,0],"sum_hessian":[2.97E2,9.1E1,2.06E2,4.2E1,4.9E1,1.71E2,3.5E1,4E0,3.8E1,3.2E1,1.7E1,7.8E1,9.3E1,2.5E1,1E1],"tree_param":{"num_deleted":"0","num_feature":"36","num_nodes":"15","size_leaf_vector":"1"}},{"base_weights":[3.0550731E-2,3.1385217E0,-1.5975957E0,5.6159725E0,1.4345791E0,-1.9790994E0,7.281313E0,1.2219776E0,4.2134297E-1,3.3726E-1,1.5926501E-3,-1.0650688E-1,-3.8780913E-1,9.6330935E-1,4.379456E-1],"categories":[],"categories_nodes":[],"categories_segments":[],"categories_sizes":[],"default_left":[0,0,1,0,0,1,0,0,0,0,0,0,0,0,0],"id":21,"left_children":[1,3,5,7,9,11,13,-1,-1,-1,-1,-1,-1,-1,-1],"loss_changes":[1.4573007E3,4.0986548E2,6.5461707E2,2.8288794E2,1.8078577E2,3.2440295E2,1.4397919E1,0E0,0E0,0E0,0E0,0E0,0E0,0E0,0E0],"parents":[2147483647,0,0,1,1,2,2,3,3,4,4,5,5,6,6],"right_children":[2,4,6,8,10,12,14,-1,-1,-1,-1,-1,-1,-1,-1],"split_conditions":[4E-1,2.9E-1,5.7E1,4.37E2,2E-1,5.4545456E-1,4.2142856E-1,1.2219776E0,4.2134297E-1,3.3726E-1,1.5926501E-3,-1.0650688E-1,-3.8780913E-1,9.6330935E-1,4.379456E-1],"split_indices":[1,1,25,6,27,1,1,0,0,0,0,0,0,0,0],"split_type":[0,0,0,0,0,0,0,0,0,0,0,0,0,0,0],"sum_hessian":[2.86E2,9.8E1,1.88E2,3.9E1,5.9E1,1.81E2,7E0,4E0,3.5E1,2.3E1,3.6E1,1.3E2,5.1E1,2E0,5E0],"tree_param":{"num_deleted":"0","num_feature":"36","num_nodes":"15","size_leaf_vector":"1"}},{"base_weights":[-3.7906475E-2,-5.76095E-1,1.1018573E1,-4.070535E0,2.8800476E-1,1.3578641E0,6.776155E-1,-2.2159743E-1,-4.9478766E-1,1.9609392E-1,-1.4178579E-1],"categories":[],"categories_nodes":[],"categories_segments":[],"categories_sizes":[],"default_left":[1,0,0,0,0,0,0,0,0,0,0],"id":22,"left_children":[1,3,5,7,9,-1,-1,-1,-1,-1,-1],"loss_changes":[1.6665288E3,8.0739087E2,6.40896E1,9.356854E1,6.8701227E2,0E0,0E0,0E0,0E0,0E0,0E0],"parents":[2147483647,0,0,1,1,2,2,3,3,4,4],"right_children":[2,4,6,8,10,-1,-1,-1,-1,-1,-1],"split_conditions":[9.06E1,2.99E1,2E-1,2E-1,1.77E2,1.3578641E0,6.776155E-1,-2.2159743E-1,-4.9478766E-1,1.9609392E-1,-1.4178579E-1],"split_indices":[24,24,27,27,7,0,0,0,0,0,0],"split_type":[0,0,0,0,0,0,0,0,0,0,0],"sum_hessian":[2.78E2,2.66E2,1.2E1,5.2E1,2.14E2,5E0,7E0,2.2E1,3E1,1.07E2,1.07E2],"tree_param":{"num_deleted":"0","num_feature":"36","num_nodes":"11","size_leaf_vector":"1"}},{"base_weights":[1.6159737E-1,3.4292521E0,-3.679673E0,3.358481E-1,8.112445E0,-1.7970103E0,-5.4559784E0,1.7145838E-1,-1.8384379E-1,6.4617646E-1,2.081743E0,2.7331197E-1,-2.6060444E-1,-5.32209E-1,2.7317744E-1],"categories":[],"categories_nodes":[],"categories_segments":[],"categories_sizes":[],"default_left":[0,0,0,0,1,0,1,0,0,0,0,0,0,0,0],"id":23,"left_children":[1,3,5,7,9,11,13,-1,-1,-1,-1,-1,-1,-1,-1],"loss_changes":[3.740546E3,2.3296838E3,4.4834875E2,3.3245227E2,9.953164E2,3.1177533E2,1.1116821E2,0E0,0E0,0E0,0E0,0E0,0E0,0E0,0E0],"parents":[2147483647,0,0,1,1,2,2,3,3,4,4,5,5,6,6],"right_children":[2,4,6,8,10,12,14,-1,-1,-1,-1,-1,-1,-1,-1],"split_conditions":[5E2,5.5E1,8E2,3E2,1.308E3,3.1454545E-1,2.1E2,1.7145838E-1,-1.8384379E-1,6.4617646E-1,2.081743E0,2.7331197E-1,-2.6060444E-1,-5.32209E-1,2.7317744E-1],"split_indices":[0,24,0,0,5,1,26,0,0,0,0,0,0,0,0],"split_type":[0,0,0,0,0,0,0,0,0,0,0,0,0,0,0],"sum_hessian":[2.96E2,1.6E2,1.36E2,9.7E1,6.3E1,6.7E1,6.9E1,5.9E1,3.8E1,5.9E1,4E0,1.1E1,5.6E1,6.8E1,1E0],"tree_param":{"num_deleted":"0","num_feature":"36","num_nodes":"15","size_leaf_vector":"1"}},{"base_weights":[-1.8685903E-1,2.3223011E0,-3.511009E0,9.189784E-1,1.0256416E1,-1.7504003E0,-4.6462727E0,-2.5582793E-1,1.8819913E-1,7.620799E-1,1.8804839E0,-2.5730777E-1,3.5820925E-1,-6.6541076E-1,-3.47755E-1],"categories":[],"categories_nodes":[],"categories_segments":[],"categories_sizes":[],"default_left":[0,1,0,0,0,0,1,0,0,0,0,0,0,0,0],"id":24,"left_children":[1,3,5,7,9,11,13,-1,-1,-1,-1,-1,-1,-1,-1],"loss_changes":[2.4436748E3,1.8499734E3,2.437102E2,5.581359E2,3.7070337E2,2.8283185E2,1.5045508E2,0E0,0E0,0E0,0E0,0E0,0E0,0E0,0E0],"parents":[2147483647,0,0,1,1,2,2,3,3,4,4,5,5,6,6],"right_children":[2,4,6,8,10,12,14,-1,-1,-1,-1,-1,-1,-1,-1],"split_conditions":[5.8E2,7.6E1,8E2,2.99E1,1.255E3,8.521E1,2E-1,-2.5582793E-1,1.8819913E-1,7.620799E-1,1.8804839E0,-2.5730777E-1,3.5820925E-1,-6.6541076E-1,-3.47755E-1],"split_indices":[0,24,0,24,5,24,27,0,0,0,0,0,0,0,0],"split_type":[0,0,0,0,0,0,0,0,0,0,0,0,0,0,0],"sum_hessian":[2.91E2,1.66E2,1.25E2,1.42E2,2.4E1,5E1,7.5E1,3.2E1,1.1E2,2.1E1,3E0,4.3E1,7E0,2E1,5.5E1],"tree_param":{"num_deleted":"0","num_feature":"36","num_nodes":"15","size_leaf_vector":"1"}},{"base_weights":[1.0740602E-1,2.338595E0,-2.8803744E0,6.92412E0,8.2791936E-1,-2.0528746E0,-6.075159E0,-5.1717055E-1,7.292827E-1,2.269392E-1,-1.17426045E-1,-2.7539426E-1,2.8257847E-1,-7.0015955E-1,-3.5307992E-1],"categories":[],"categories_nodes":[],"categories_segments":[],"categories_sizes":[],"default_left":[0,0,0,0,0,1,1,0,0,0,0,0,0,0,0],"id":25,"left_children":[1,3,5,7,9,11,13,-1,-1,-1,-1,-1,-1,-1,-1],"loss_changes":[1.9332975E3,1.1441895E3,3.1534534E2,4.355758E2,4.114448E2,4.390205E2,4.971747E1,0E0,0E0,0E0,0E0,0E0,0E0,0E0,0E0],"parents":[2147483647,0,0,1,1,2,2,3,3,4,4,5,5,6,6],"right_children":[2,4,6,8,10,12,14,-1,-1,-1,-1,-1,-1,-1,-1],"split_conditions":[5.8E2,4E-1,1E3,6.9E1,3E2,5.29E1,2E-1,-5.1717055E-1,7.292827E-1,2.269392E-1,-1.17426045E-1,-2.7539426E-1,2.8257847E-1,-7.0015955E-1,-3.5307992E-1],"split_indices":[0,1,0,25,0,25,27,0,0,0,0,0,0,0,0],"split_type":[0,0,0,0,0,0,0,0,0,0,0,0,0,0,0],"sum_hessian":[2.88E2,1.65E2,1.23E2,4E1,1.25E2,9.9E1,2.4E1,2E0,3.8E1,7.1E1,5.4E1,8.5E1,1.4E1,1.4E1,1E1],"tree_param":{"num_deleted":"0","num_feature":"36","num_nodes":"15","size_leaf_vector":"1"}},{"base_weights":[2.1647441E-1,5.1933885E0,-1.1682123E0,5.629168E-1,7.726075E0,5.153994E-1,-2.7538252E0,-2.0412741E-2,5.5168027E-1,1.028032E0,5.129858E-1,-2.0652208E-2,1.2448616E0,-1.9237548E-1,-4.996526E-1],"categories":[],"categories_nodes":[],"categories_segments":[],"categories_sizes":[],"default_left":[0,0,0,1,0,1,0,0,0,0,0,0,0,0,0],"id":26,"left_children":[1,3,5,7,9,11,13,-1,-1,-1,-1,-1,-1,-1,-1],"loss_changes":[1.9632437E3,7.2275793E2,5.967304E2,9.5451294E1,2.3021143E2,1.01230536E3,1.9886896E2,0E0,0E0,0E0,0E0,0E0,0E0,0E0,0E0],"parents":[2147483647,0,0,1,1,2,2,3,3,4,4,5,5,6,6],"right_children":[2,4,6,8,10,12,14,-1,-1,-1,-1,-1,-1,-1,-1],"split_conditions":[1E2,4.56E1,5.8E2,3.7E1,1E0,7E1,1E3,-2.0412741E-2,5.5168027E-1,1.028032E0,5.129858E-1,-2.0652208E-2,1.2448616E0,-1.9237548E-1,-4.996526E-1],"split_indices":[0,24,0,25,34,25,0,0,0,0,0,0,0,0,0],"split_type":[0,0,0,0,0,0,0,0,0,0,0,0,0,0,0],"sum_hessian":[2.83E2,6.1E1,2.22E2,2.2E1,3.9E1,1.08E2,1.14E2,2E1,2E0,1.5E1,2.4E1,1.03E2,5E0,9E1,2.4E1],"tree_param":{"num_deleted":"0","num_feature":"36","num_nodes":"15","size_leaf_vector":"1"}},{"base_weights":[2.139369E-1,3.671711E0,-1.4985671E0,2.0889554E-2,6.297374E0,-4.870987E0,-6.6717374E-1,-3.0943212E-1,6.2475845E-2,4.797506E-1,9.943288E-1,-1.8452075E-1,-5.635692E-1,2.4997059E-1,-1.7319432E-1],"categories":[],"categories_nodes":[],"categories_segments":[],"categories_sizes":[],"default_left":[0,0,1,0,1,0,0,0,0,0,0,0,0,0,0],"id":27,"left_children":[1,3,5,7,9,11,13,-1,-1,-1,-1,-1,-1,-1,-1],"loss_changes":[1.7523307E3,9.392794E2,5.5190393E2,9.03441E1,2.4190137E2,1.1138068E2,6.1912476E2,0E0,0E0,0E0,0E0,0E0,0E0,0E0,0E0],"parents":[2147483647,0,0,1,1,2,2,3,3,4,4,5,5,6,6],"right_children":[2,4,6,8,10,12,14,-1,-1,-1,-1,-1,-1,-1,-1],"split_conditions":[3E2,5E1,3.41E2,2.8E1,8.584E1,3.23E1,5E2,-3.0943212E-1,6.2475845E-2,4.797506E-1,9.943288E-1,-1.8452075E-1,-5.635692E-1,2.4997059E-1,-1.7319432E-1],"split_indices":[0,24,6,24,24,24,0,0,0,0,0,0,0,0,0],"split_type":[0,0,0,0,0,0,0,0,0,0,0,0,0,0,0],"sum_hessian":[2.94E2,9.7E1,1.97E2,4.1E1,5.6E1,3.8E1,1.59E2,6E0,3.5E1,4.5E1,1.1E1,1.1E1,2.7E1,4.1E1,1.18E2],"tree_param":{"num_deleted":"0","num_feature":"36","num_nodes":"15","size_leaf_vector":"1"}},{"base_weights":[1.0948262E-1,-1.3869886E0,1.7113101E0,-1.813197E0,3.276853E0,4.0180187E0,9.6927863E-1,-9.763701E-2,-4.7556314E-1,1.5587166E-1,7.734936E-1,5.6520826E-1,2.9152533E-1,1.11567944E-1,-2.6263443E-1],"categories":[],"categories_nodes":[],"categories_segments":[],"categories_sizes":[],"default_left":[0,1,0,1,0,0,1,0,0,0,0,0,0,0,0],"id":28,"left_children":[1,3,5,7,9,11,13,-1,-1,-1,-1,-1,-1,-1,-1],"loss_changes":[6.999265E2,3.0609454E2,2.3744815E2,3.4365375E2,9.024359E1,4.394696E1,8.755496E1,0E0,0E0,0E0,0E0,0E0,0E0,0E0,0E0],"parents":[2147483647,0,0,1,1,2,2,3,3,4,4,5,5,6,6],"right_children":[2,4,6,8,10,12,14,-1,-1,-1,-1,-1,-1,-1,-1],"split_conditions":[5.34E1,5.29E1,2.9E-1,4.02E0,5E1,1.5E1,5.501418E-1,-9.763701E-2,-4.7556314E-1,1.5587166E-1,7.734936E-1,5.6520826E-1,2.9152533E-1,1.11567944E-1,-2.6263443E-1],"split_indices":[24,25,1,8,24,10,1,0,0,0,0,0,0,0,0],"split_type":[0,0,0,0,0,0,0,0,0,0,0,0,0,0,0],"sum_hessian":[2.9E2,1.5E2,1.4E2,1.38E2,1.2E1,3.3E1,1.07E2,1.12E2,2.6E1,1E1,2E0,9E0,2.4E1,1.02E2,5E0],"tree_param":{"num_deleted":"0","num_feature":"36","num_nodes":"15","size_leaf_vector":"1"}},{"base_weights":[-2.5707757E-1,9.462744E-1,-3.696324E0,-1.907139E0,2.0366328E0,-4.9261065E0,-2.436377E0,6.487796E-2,-2.7279612E-1,-2.2797063E-1,2.8501472E-1,-3.6375538E-1,-5.917298E-1,-2.6579517E-1,1.5957572E-1],"categories":[],"categories_nodes":[],"categories_segments":[],"categories_sizes":[],"default_left":[0,0,1,0,0,1,0,0,0,0,0,0,0,0,0],"id":29,"left_children":[1,3,5,7,9,11,13,-1,-1,-1,-1,-1,-1,-1,-1],"loss_changes":[1.2616395E3,7.0702515E2,1.10405396E2,1.6083585E2,7.157898E2,3.1948853E1,6.7189545E1,0E0,0E0,0E0,0E0,0E0,0E0,0E0,0E0],"parents":[2147483647,0,0,1,1,2,2,3,3,4,4,5,5,6,6],"right_children":[2,4,6,8,10,12,14,-1,-1,-1,-1,-1,-1,-1,-1],"split_conditions":[8E2,3.23E1,6.95E2,2E2,3.41E2,5.5E1,9.124E1,6.487796E-2,-2.7279612E-1,-2.2797063E-1,2.8501472E-1,-3.6375538E-1,-5.917298E-1,-2.6579517E-1,1.5957572E-1],"split_indices":[0,24,6,0,6,24,24,0,0,0,0,0,0,0,0],"split_type":[0,0,0,0,0,0,0,0,0,0,0,0,0,0,0],"sum_hessian":[3.03E2,2.25E2,7.8E1,6.2E1,1.63E2,3.8E1,4E1,1.7E1,4.5E1,2.9E1,1.34E2,2.3E1,1.5E1,3.7E1,3E0],"tree_param":{"num_deleted":"0","num_feature":"36","num_nodes":"15","size_leaf_vector":"1"}},{"base_weights":[6.092602E-2,2.9274745E0,-1.2995329E0,6.841134E-1,5.2047324E0,-1.6584717E0,3.880797E0,2.55508E-1,-2.9627325E-2,5.19713E-1,-6.308714E-2,-1.21485E-1,-5.5018574E-1,8.668727E-1,-3.593709E-1],"categories":[],"categories_nodes":[],"categories_segments":[],"categories_sizes":[],"default_left":[0,0,1,0,1,1,0,0,0,0,0,0,0,0,0],"id":30,"left_children":[1,3,5,7,9,11,13,-1,-1,-1,-1,-1,-1,-1,-1],"loss_changes":[1.1269528E3,4.7154956E2,3.7088284E2,9.7184E1,7.980701E1,2.796065E2,5.60615E2,0E0,0E0,0E0,0E0,0E0,0E0,0E0,0E0],"parents":[2147483647,0,0,1,1,2,2,3,3,4,4,5,5,6,6],"right_children":[2,4,6,8,10,12,14,-1,-1,-1,-1,-1,-1,-1,-1],"split_conditions":[3E2,5.34E1,9.06E1,2.3E1,5.501418E-1,2E0,8E2,2.55508E-1,-2.9627325E-2,5.19713E-1,-6.308714E-2,-1.21485E-1,-5.5018574E-1,8.668727E-1,-3.593709E-1],"split_indices":[0,24,24,0,1,27,0,0,0,0,0,0,0,0,0],"split_type":[0,0,0,0,0,0,0,0,0,0,0,0,0,0,0],"sum_hessian":[2.87E2,9.2E1,1.95E2,4.7E1,4.5E1,1.83E2,1.2E1,1.5E1,3.2E1,4.3E1,2E0,1.69E2,1.4E1,7E0,5E0],"tree_param":{"num_deleted":"0","num_feature":"36","num_nodes":"15","size_leaf_vector":"1"}},{"base_weights":[-2.7659154E-3,2.4534578E0,-1.2912617E0,8.154645E-2,3.6945932E0,-2.0158937E0,1.9436222E0,-3.7906818E-2,4.9188074E-1,4.3959427E-1,1.1924641E-1,-3.81125E-1,-8.9130364E-2,5.3464997E-1,-5.974613E-1],"categories":[],"categories_nodes":[],"categories_segments":[],"categories_sizes":[],"default_left":[0,0,1,1,1,0,0,0,0,0,0,0,0,0,0],"id":31,"left_children":[1,3,5,7,9,11,13,-1,-1,-1,-1,-1,-1,-1,-1],"loss_changes":[8.829919E2,2.8230957E2,4.3288852E2,8.579713E1,1.3936511E2,3.1993695E2,1.0738195E3,0E0,0E0,0E0,0E0,0E0,0E0,0E0,0E0],"parents":[2147483647,0,0,1,1,2,2,3,3,4,4,5,5,6,6],"right_children":[2,4,6,8,10,12,14,-1,-1,-1,-1,-1,-1,-1,-1],"split_conditions":[3E2,4.56E1,5.29E1,3.7E1,1.77E2,6.95E2,1E3,-3.7906818E-2,4.9188074E-1,4.3959427E-1,1.1924641E-1,-3.81125E-1,-8.9130364E-2,5.3464997E-1,-5.974613E-1],"split_indices":[0,24,25,25,7,6,0,0,0,0,0,0,0,0,0],"split_type":[0,0,0,0,0,0,0,0,0,0,0,0,0,0,0],"sum_hessian":[2.77E2,9.5E1,1.82E2,3.3E1,6.2E1,1.49E2,3.3E1,3.1E1,2E0,4.4E1,1.8E1,5.1E1,9.8E1,2.3E1,1E1],"tree_param":{"num_deleted":"0","num_feature":"36","num_nodes":"15","size_leaf_vector":"1"}},{"base_weights":[2.1004888E-1,1.7381457E0,-1.9310371E0,1.007798E0,9.699985E0,-2.4777007E0,-4.14751E-1,-3.850659E-3,3.6274683E-1,1.426899E0,6.505114E-1,-1.9555315E-1,-3.866544E-1,1.789162E-1,-1.7249283E-1],"categories":[],"categories_nodes":[],"categories_segments":[],"categories_sizes":[],"default_left":[0,1,0,1,0,0,0,0,0,0,0,0,0,0,0],"id":32,"left_children":[1,3,5,7,9,11,13,-1,-1,-1,-1,-1,-1,-1,-1],"loss_changes":[9.4235913E2,9.6712933E2,9.8440216E1,4.5872552E2,1.0925159E2,4.990796E1,1.1034474E2,0E0,0E0,0E0,0E0,0E0,0E0,0E0,0E0],"parents":[2147483647,0,0,1,1,2,2,3,3,4,4,5,5,6,6],"right_children":[2,4,6,8,10,12,14,-1,-1,-1,-1,-1,-1,-1,-1],"split_conditions":[5.8E2,6.9E1,8.28E1,6E1,2.8723404E-1,8.385E2,8E2,-3.850659E-3,3.6274683E-1,1.426899E0,6.505114E-1,-1.9555315E-1,-3.866544E-1,1.789162E-1,-1.7249283E-1],"split_indices":[0,25,24,24,1,6,0,0,0,0,0,0,0,0,0],"split_type":[0,0,0,0,0,0,0,0,0,0,0,0,0,0,0],"sum_hessian":[2.86E2,1.67E2,1.19E2,1.54E2,1.3E1,8.7E1,3.2E1,1.13E2,4.1E1,3E0,1E1,7.1E1,1.6E1,1.2E1,2E1],"tree_param":{"num_deleted":"0","num_feature":"36","num_nodes":"15","size_leaf_vector":"1"}},{"base_weights":[1.5349384E-1,3.5860553E0,-7.458183E-1,7.3466253E0,1.8410113E0,-2.9728322E0,-2.4430756E-2,9.078248E-1,4.5922038E-1,9.153649E-2,5.8738136E-1,-3.5527825E-2,-3.9424977E-1,1.18993945E-1,-2.0813519E-1],"categories":[],"categories_nodes":[],"categories_segments":[],"categories_sizes":[],"default_left":[0,1,1,0,1,0,0,0,0,0,0,0,0,0,0],"id":33,"left_children":[1,3,5,7,9,11,13,-1,-1,-1,-1,-1,-1,-1,-1],"loss_changes":[9.0714923E2,3.8677875E2,3.7425122E2,5.9753296E1,1.5798886E2,1.7454813E2,4.953117E2,0E0,0E0,0E0,0E0,0E0,0E0,0E0,0E0],"parents":[2147483647,0,0,1,1,2,2,3,3,4,4,5,5,6,6],"right_children":[2,4,6,8,10,12,14,-1,-1,-1,-1,-1,-1,-1,-1],"split_conditions":[1E2,2.9E-1,3.41E2,1E0,4.7E1,4E2,8E2,9.078248E-1,4.5922038E-1,9.153649E-2,5.8738136E-1,-3.5527825E-2,-3.9424977E-1,1.18993945E-1,-2.0813519E-1],"split_indices":[0,1,6,34,25,0,0,0,0,0,0,0,0,0,0],"split_type":[0,0,0,0,0,0,0,0,0,0,0,0,0,0,0],"sum_hessian":[2.92E2,6E1,2.32E2,1.8E1,4.2E1,5.6E1,1.76E2,8E0,1E1,3.6E1,6E0,1.8E1,3.8E1,1.11E2,6.5E1],"tree_param":{"num_deleted":"0","num_feature":"36","num_nodes":"15","size_leaf_vector":"1"}},{"base_weights":[2.16288E-1,1.8212544E-2,6.288578E0,3.5386306E-1,-3.1027687E0,7.251964E-1,2.5245476E-1,2.5939895E-3,2.181352E-1,-9.479572E-2,-4.4686425E-1],"categories":[],"categories_nodes":[],"categories_segments":[],"categories_sizes":[],"default_left":[1,1,0,1,0,0,0,0,0,0,0],"id":34,"left_children":[1,3,5,7,9,-1,-1,-1,-1,-1,-1],"loss_changes":[3.4267538E2,2.9127176E2,2.418869E1,1.5965256E2,8.692877E1,0E0,0E0,0E0,0E0,0E0,0E0],"parents":[2147483647,0,0,1,1,2,2,3,3,4,4],"right_children":[2,4,6,8,10,-1,-1,-1,-1,-1,-1],"split_conditions":[1.308E3,6.351351E-1,2E-1,5.5E0,2E-1,7.251964E-1,2.5245476E-1,2.5939895E-3,2.181352E-1,-9.479572E-2,-4.4686425E-1],"split_indices":[5,1,27,8,27,0,0,0,0,0,0],"split_type":[0,0,0,0,0,0,0,0,0,0,0],"sum_hessian":[2.84E2,2.76E2,8E0,2.5E2,2.6E1,5E0,3E0,2.15E2,3.5E1,1.2E1,1.4E1],"tree_param":{"num_deleted":"0","num_feature":"36","num_nodes":"11","size_leaf_vector":"1"}},{"base_weights":[-7.3508285E-2,2.8596034E0,-8.9292157E-1,3.5815352E-1,4.9220004E0,-6.8920636E-1,-6.4344044E0,-6.831543E-2,5.5879027E-1,7.4268895E-1,2.8968677E-1,1.2499956E-2,-2.0904247E-1,-6.956721E-1,-2.3393409E-1],"categories":[],"categories_nodes":[],"categories_segments":[],"categories_sizes":[],"default_left":[0,1,1,1,1,0,0,0,0,0,0,0,0,0,0],"id":35,"left_children":[1,3,5,7,9,11,13,-1,-1,-1,-1,-1,-1,-1,-1],"loss_changes":[7.0435516E2,3.2841205E2,2.5407994E2,1.836828E2,1.6640948E2,2.769679E2,1.0723389E1,0E0,0E0,0E0,0E0,0E0,0E0,0E0,0E0],"parents":[2147483647,0,0,1,1,2,2,3,3,4,4,5,5,6,6],"right_children":[2,4,6,8,10,12,14,-1,-1,-1,-1,-1,-1,-1,-1],"split_conditions":[1E2,4.7E1,5.62E2,3.7E1,2.9E-1,8E2,4.4E2,-6.831543E-2,5.5879027E-1,7.4268895E-1,2.8968677E-1,1.2499956E-2,-2.0904247E-1,-6.956721E-1,-2.3393409E-1],"split_indices":[0,24,2,25,1,0,0,0,0,0,0,0,0,0,0],"split_type":[0,0,0,0,0,0,0,0,0,0,0,0,0,0,0],"sum_hessian":[2.91E2,6.3E1,2.28E2,2.9E1,3.4E1,2.21E2,7E0,2.5E1,4E0,1.2E1,2.2E1,1.44E2,7.7E1,5E0,2E0],"tree_param":{"num_deleted":"0","num_feature":"36","num_nodes":"15","size_leaf_vector":"1"}},{"base_weights":[3.4437782E-1,1.6125093E0,-1.3772581E0,8.4155107E-1,8.691276E0,-3.5574837E0,-9.362603E-1,4.0854835E-3,3.259274E-1,5.90402E-1,1.2174498E0,-2.1656397E-1,-3.9919665E-1,5.3518273E-2,-1.7045389E-1],"categories":[],"categories_nodes":[],"categories_segments":[],"categories_sizes":[],"default_left":[0,1,1,1,0,0,0,0,0,0,0,0,0,0,0],"id":36,"left_children":[1,3,5,7,9,11,13,-1,-1,-1,-1,-1,-1,-1,-1],"loss_changes":[6.2226685E2,8.8770496E2,1.13007706E2,3.0908026E2,8.357385E1,7.065735E0,1.3320654E2,0E0,0E0,0E0,0E0,0E0,0E0,0E0,0E0],"parents":[2147483647,0,0,1,1,2,2,3,3,4,4,5,5,6,6],"right_children":[2,4,6,8,10,12,14,-1,-1,-1,-1,-1,-1,-1,-1],"split_conditions":[5.8E2,6.9E1,3.41E2,6E1,1.18E3,3.85E1,8E2,4.0854835E-3,3.259274E-1,5.90402E-1,1.2174498E0,-2.1656397E-1,-3.9919665E-1,5.3518273E-2,-1.7045389E-1],"split_indices":[0,25,6,24,5,24,0,0,0,0,0,0,0,0,0],"split_type":[0,0,0,0,0,0,0,0,0,0,0,0,0,0,0],"sum_hessian":[2.83E2,1.63E2,1.2E2,1.48E2,1.5E1,1.9E1,1.01E2,1.14E2,3.4E1,1.1E1,4E0,8E0,1.1E1,3.7E1,6.4E1],"tree_param":{"num_deleted":"0","num_feature":"36","num_nodes":"15","size_leaf_vector":"1"}},{"base_weights":[-3.9406296E-2,2.2566507E0,-6.7012733E-1,6.871162E0,1.4304761E0,-3.6724737E-1,-3.4068885E0,6.851198E-1,1.8834525E-1,7.901238E-2,4.4334966E-1,-2.5369597E-3,-3.2651687E-1,-8.41806E-2,-4.5299506E-1],"categories":[],"categories_nodes":[],"categories_segments":[],"categories_sizes":[],"default_left":[0,0,1,0,1,0,0,0,0,0,0,0,0,0,0],"id":37,"left_children":[1,3,5,7,9,11,13,-1,-1,-1,-1,-1,-1,-1,-1],"loss_changes":[4.098966E2,2.2272687E2,1.8276685E2,1.5169983E0,9.881472E1,2.1067273E2,7.195116E1,0E0,0E0,0E0,0E0,0E0,0E0,0E0,0E0],"parents":[2147483647,0,0,1,1,2,2,3,3,4,4,5,5,6,6],"right_children":[2,4,6,8,10,12,14,-1,-1,-1,-1,-1,-1,-1,-1],"split_conditions":[1E2,2.9E-1,6.351351E-1,1.6E2,4.7E1,1E3,2E-1,6.851198E-1,1.8834525E-1,7.901238E-2,4.4334966E-1,-2.5369597E-3,-3.2651687E-1,-8.41806E-2,-4.5299506E-1],"split_indices":[0,1,1,7,25,0,27,0,0,0,0,0,0,0,0],"split_type":[0,0,0,0,0,0,0,0,0,0,0,0,0,0,0],"sum_hessian":[2.81E2,6E1,2.21E2,8E0,5.2E1,2E2,2.1E1,7E0,1E0,4.5E1,7E0,1.81E2,1.9E1,8E0,1.3E1],"tree_param":{"num_deleted":"0","num_feature":"36","num_nodes":"15","size_leaf_vector":"1"}},{"base_weights":[2.670186E-2,2.0800531E-1,-4.2059374E0,6.9957465E-1,-1.6060752E0,-4.859363E-1,-1.0750098E0,9.120908E-2,-3.3985502E-1,-2.649074E-1,1.257324E-1,9.553568E-2,-1.9945984E-1],"categories":[],"categories_nodes":[],"categories_segments":[],"categories_sizes":[],"default_left":[1,1,0,1,0,0,0,0,0,0,0,0,0],"id":38,"left_children":[1,3,5,7,9,-1,11,-1,-1,-1,-1,-1,-1],"loss_changes":[2.2418594E2,2.5081256E2,2.9208176E1,2.529784E2,2.1326846E2,0E0,1.0714352E1,0E0,0E0,0E0,0E0,0E0,0E0],"parents":[2147483647,0,0,1,1,2,2,3,3,4,4,6,6],"right_children":[2,4,6,8,10,-1,12,-1,-1,-1,-1,-1,-1],"split_conditions":[4E0,5.4545456E-1,4.7252747E-1,5.62E2,1.209E3,-4.859363E-1,3.2E1,9.120908E-2,-3.3985502E-1,-2.649074E-1,1.257324E-1,9.553568E-2,-1.9945984E-1],"split_indices":[27,1,1,2,5,0,26,0,0,0,0,0,0],"split_type":[0,0,0,0,0,0,0,0,0,0,0,0,0],"sum_hessian":[2.9E2,2.79E2,1.1E1,2.2E2,5.9E1,8E0,3E0,2.08E2,1.2E1,4.2E1,1.7E1,1E0,2E0],"tree_param":{"num_deleted":"0","num_feature":"36","num_nodes":"13","size_leaf_vector":"1"}},{"base_weights":[-2.9326255E-2,1.3276557E0,-1.6839439E0,5.983346E-1,7.398323E0,-1.9293715E0,1.6391809E0,-1.177072E-3,2.591984E-1,1.0924205E0,4.7920296E-1,-2.0960099E-1,-2.6433006E-2,2.1908273E-1,2.0725349E-2],"categories":[],"categories_nodes":[],"categories_segments":[],"categories_sizes":[],"default_left":[0,1,1,1,0,1,0,0,0,0,0,0,0,0,0],"id":39,"left_children":[1,3,5,7,9,11,13,-1,-1,-1,-1,-1,-1,-1,-1],"loss_changes":[6.1295355E2,6.596931E2,1.0347974E2,1.7632451E2,9.640564E1,5.3173737E1,8.106403E0,0E0,0E0,0E0,0E0,0E0,0E0,0E0,0E0],"parents":[2147483647,0,0,1,1,2,2,3,3,4,4,5,5,6,6],"right_children":[2,4,6,8,10,12,14,-1,-1,-1,-1,-1,-1,-1,-1],"split_conditions":[5.8E2,6.9E1,7.8E1,6.6E1,2.8723404E-1,5.5E0,1E0,-1.177072E-3,2.591984E-1,1.0924205E0,4.7920296E-1,-2.0960099E-1,-2.6433006E-2,2.1908273E-1,2.0725349E-2],"split_indices":[0,25,14,24,1,8,18,0,0,0,0,0,0,0,0],"split_type":[0,0,0,0,0,0,0,0,0,0,0,0,0,0,0],"sum_hessian":[2.71E2,1.49E2,1.22E2,1.34E2,1.5E1,1.14E2,8E0,1.05E2,2.9E1,4E0,1.1E1,9.7E1,1.7E1,5E0,3E0],"tree_param":{"num_deleted":"0","num_feature":"36","num_nodes":"15","size_leaf_vector":"1"}},{"base_weights":[-6.1957814E-2,1.5272886E0,-8.268227E-1,-1.6795121E-1,2.5898125E0,-4.5248547E0,-3.3763504E-1,-2.6969972E-1,4.3839533E-2,3.020151E-1,8.467867E-2,-4.528596E-1,-1.2402503E-1,3.8311183E-2,-1.6953923E-1],"categories":[],"categories_nodes":[],"categories_segments":[],"categories_sizes":[],"default_left":[0,0,0,0,1,0,0,0,0,0,0,0,0,0,0],"id":40,"left_children":[1,3,5,7,9,11,13,-1,-1,-1,-1,-1,-1,-1,-1],"loss_changes":[3.4040366E2,1.6434712E2,3.403792E2,6.2159626E1,5.399942E1,1.1855499E1,1.817758E2,0E0,0E0,0E0,0E0,0E0,0E0,0E0,0E0],"parents":[2147483647,0,0,1,1,2,2,3,3,4,4,5,5,6,6],"right_children":[2,4,6,8,10,12,14,-1,-1,-1,-1,-1,-1,-1,-1],"split_conditions":[3E2,5E1,3.41E2,2.8E1,1.77E2,4.7252747E-1,5.4545456E-1,-2.6969972E-1,4.3839533E-2,3.020151E-1,8.467867E-2,-4.528596E-1,-1.2402503E-1,3.8311183E-2,-1.6953923E-1],"split_indices":[0,24,6,24,7,1,1,0,0,0,0,0,0,0,0],"split_type":[0,0,0,0,0,0,0,0,0,0,0,0,0,0,0],"sum_hessian":[2.78E2,9E1,1.88E2,3.5E1,5.5E1,2.1E1,1.67E2,6E0,2.9E1,4E1,1.5E1,1.9E1,2E0,1.11E2,5.6E1],"tree_param":{"num_deleted":"0","num_feature":"36","num_nodes":"15","size_leaf_vector":"1"}},{"base_weights":[-2.7647316E-1,1.7566062E0,-7.497064E-1,5.1523304E-1,5.4439235E0,-2.568656E0,-1.2911955E-1,-2.306106E-1,1.0954032E-1,1.379816E-1,6.0611826E-1,-6.7999564E-2,-3.151117E-1,6.7038506E-2,-1.535069E-1],"categories":[],"categories_nodes":[],"categories_segments":[],"categories_sizes":[],"default_left":[0,0,1,1,0,0,0,0,0,0,0,0,0,0,0],"id":41,"left_children":[1,3,5,7,9,11,13,-1,-1,-1,-1,-1,-1,-1,-1],"loss_changes":[2.8514255E2,2.53526E2,2.7058426E2,8.414822E1,4.398767E1,8.31929E1,2.2581651E2,0E0,0E0,0E0,0E0,0E0,0E0,0E0,0E0],"parents":[2147483647,0,0,1,1,2,2,3,3,4,4,5,5,6,6],"right_children":[2,4,6,8,10,12,14,-1,-1,-1,-1,-1,-1,-1,-1],"split_conditions":[1E2,1.208E3,3.41E2,2.8E1,3.23E1,3.85E1,8E2,-2.306106E-1,1.0954032E-1,1.379816E-1,6.0611826E-1,-6.7999564E-2,-3.151117E-1,6.7038506E-2,-1.535069E-1],"split_indices":[0,5,6,24,24,24,0,0,0,0,0,0,0,0,0],"split_type":[0,0,0,0,0,0,0,0,0,0,0,0,0,0,0],"sum_hessian":[2.94E2,5.5E1,2.39E2,4.2E1,1.3E1,6E1,1.79E2,7E0,3.5E1,3E0,1E1,1.8E1,4.2E1,1.15E2,6.4E1],"tree_param":{"num_deleted":"0","num_feature":"36","num_nodes":"15","size_leaf_vector":"1"}},{"base_weights":[2.849611E-1,1.0813974E0,-9.120681E-1,7.4847007E-1,8.716821E-1,-4.8484203E-1,-2.4380069E0,1.44884E-1,-4.656749E-2,-9.24636E-2,2.836708E-1,-6.270144E-2,-4.5463902E-1],"categories":[],"categories_nodes":[],"categories_segments":[],"categories_sizes":[],"default_left":[0,1,0,0,0,1,1,0,0,0,0,0,0],"id":42,"left_children":[1,3,5,7,-1,9,11,-1,-1,-1,-1,-1,-1],"loss_changes":[2.8604025E2,4.7978705E2,7.7048454E1,1.6929507E2,0E0,1.6533452E2,1.0588071E2,0E0,0E0,0E0,0E0,0E0,0E0],"parents":[2147483647,0,0,1,1,2,2,3,3,5,5,6,6],"right_children":[2,4,6,8,-1,10,12,-1,-1,-1,-1,-1,-1],"split_conditions":[5.8E2,9.06E1,1E3,5.4545456E-1,8.716821E-1,5.7E1,4.7E1,1.44884E-1,-4.656749E-2,-9.24636E-2,2.836708E-1,-6.270144E-2,-4.5463902E-1],"split_indices":[0,24,0,1,0,25,24,0,0,0,0,0,0],"split_type":[0,0,0,0,0,0,0,0,0,0,0,0,0],"sum_hessian":[2.98E2,1.79E2,1.19E2,1.73E2,6E0,9.4E1,2.5E1,1.06E2,6.7E1,8.3E1,1.1E1,1.5E1,1E1],"tree_param":{"num_deleted":"0","num_feature":"36","num_nodes":"13","size_leaf_vector":"1"}},{"base_weights":[-1.9705014E-1,1.7592406E0,-6.8745625E-1,8.057982E-1,4.5254442E-1,-4.878366E-1,-5.291045E0,2.1844447E-2,4.0866035E-1,4.5142956E-3,-2.2824863E-1,-5.756173E-1,-1.6042724E-1],"categories":[],"categories_nodes":[],"categories_segments":[],"categories_sizes":[],"default_left":[0,0,1,0,0,0,0,0,0,0,0,0,0],"id":43,"left_children":[1,3,5,7,-1,9,11,-1,-1,-1,-1,-1,-1],"loss_changes":[2.6311932E2,1.5443144E2,1.9867258E2,8.578054E1,0E0,2.172617E2,1.51514435E1,0E0,0E0,0E0,0E0,0E0,0E0],"parents":[2147483647,0,0,1,1,2,2,3,3,5,5,6,6],"right_children":[2,4,6,8,-1,10,12,-1,-1,-1,-1,-1,-1],"split_conditions":[1E2,1.209E3,5.62E2,2E-1,4.5254442E-1,2E0,4.4E2,2.1844447E-2,4.0866035E-1,4.5142956E-3,-2.2824863E-1,-5.756173E-1,-1.6042724E-1],"split_indices":[0,5,2,27,0,27,0,0,0,0,0,0,0],"split_type":[0,0,0,0,0,0,0,0,0,0,0,0,0],"sum_hessian":[2.72E2,5.4E1,2.18E2,4.2E1,1.2E1,2.1E2,8E0,3.7E1,5E0,1.65E2,4.5E1,6E0,2E0],"tree_param":{"num_deleted":"0","num_feature":"36","num_nodes":"13","size_leaf_vector":"1"}},{"base_weights":[-3.894159E-2,-4.4498926E-1,1.7031271E0,9.795336E-1,-1.312899E0,3.3551824E0,-3.0206788E0,-6.70647E-2,1.6835164E-1,-8.446316E-2,-3.327017E-1,2.4489205E-1,7.646692E-1,4.352261E-2,-4.2233574E-1],"categories":[],"categories_nodes":[],"categories_segments":[],"categories_sizes":[],"default_left":[1,0,0,0,1,1,1,0,0,0,0,0,0,0,0],"id":44,"left_children":[1,3,5,7,9,11,13,-1,-1,-1,-1,-1,-1,-1,-1],"loss_changes":[1.9457532E2,2.7699374E2,4.1594232E2,1.156949E2,1.25642975E2,1.2076221E2,7.211169E1,0E0,0E0,0E0,0E0,0E0,0E0,0E0,0E0],"parents":[2147483647,0,0,1,1,2,2,3,3,4,4,5,5,6,6],"right_children":[2,4,6,8,10,12,14,-1,-1,-1,-1,-1,-1,-1,-1],"split_conditions":[3.7E1,3E2,1E3,3.54E1,5.4545456E-1,9.4E1,4.7E1,-6.70647E-2,1.6835164E-1,-8.446316E-2,-3.327017E-1,2.4489205E-1,7.646692E-1,4.352261E-2,-4.2233574E-1],"split_indices":[25,0,0,24,1,24,24,0,0,0,0,0,0,0,0],"split_type":[0,0,0,0,0,0,0,0,0,0,0,0,0,0,0],"sum_hessian":[2.73E2,2.22E2,5.1E1,8.4E1,1.38E2,3.8E1,1.3E1,2.7E1,5.7E1,1.17E2,2.1E1,3.4E1,4E0,4E0,9E0],"tree_param":{"num_deleted":"0","num_feature":"36","num_nodes":"15","size_leaf_vector":"1"}},{"base_weights":[1.6936529E-1,1.7732267E0,-2.8436115E-1,4.4546342E-1,3.1304E0,-9.1562666E-2,-4.7085524E0,-5.685889E-2,3.464647E-1,4.502974E-1,1.5243319E-1,3.660504E-2,-1.7826852E-1,-5.920969E-1,-1.15362E-1],"categories":[],"categories_nodes":[],"categories_segments":[],"categories_sizes":[],"default_left":[0,1,1,1,1,0,0,0,0,0,0,0,0,0,0],"id":45,"left_children":[1,3,5,7,9,11,13,-1,-1,-1,-1,-1,-1,-1,-1],"loss_changes":[2.013534E2,1.0852782E2,1.83812E2,1.0968842E2,6.643573E1,1.7874536E2,4.084102E1,0E0,0E0,0E0,0E0,0E0,0E0,0E0,0E0],"parents":[2147483647,0,0,1,1,2,2,3,3,4,4,5,5,6,6],"right_children":[2,4,6,8,10,12,14,-1,-1,-1,-1,-1,-1,-1,-1],"split_conditions":[1E2,5.33E1,5.62E2,3.7E1,2.9E-1,5E1,4.4E2,-5.685889E-2,3.464647E-1,4.502974E-1,1.5243319E-1,3.660504E-2,-1.7826852E-1,-5.920969E-1,-1.15362E-1],"split_indices":[0,24,2,25,1,12,0,0,0,0,0,0,0,0,0],"split_type":[0,0,0,0,0,0,0,0,0,0,0,0,0,0,0],"sum_hessian":[2.75E2,6E1,2.15E2,3.1E1,2.9E1,2.07E2,8E0,2.4E1,7E0,1.3E1,1.6E1,1.64E2,4.3E1,5E0,3E0],"tree_param":{"num_deleted":"0","num_feature":"36","num_nodes":"15","size_leaf_vector":"1"}},{"base_weights":[-4.168134E-2,6.6002774E-1,-9.185019E-1,2.589484E-1,6.251598E0,-2.942114E0,-5.937757E-1,3.8654327E-2,-3.3271572E-1,8.3764654E-1,2.4798666E-1,1.6897894E-1,-3.1495577E-1,-7.717271E-2,1.2982914E-1],"categories":[],"categories_nodes":[],"categories_segments":[],"categories_sizes":[],"default_left":[0,1,0,1,0,0,1,0,0,0,0,0,0,0,0],"id":46,"left_children":[1,3,5,7,9,11,13,-1,-1,-1,-1,-1,-1,-1,-1],"loss_changes":[1.8272704E2,3.6842062E2,8.499288E1,8.8614334E1,8.0432495E1,3.850821E1,5.1031616E1,0E0,0E0,0E0,0E0,0E0,0E0,0E0,0E0],"parents":[2147483647,0,0,1,1,2,2,3,3,4,4,5,5,6,6],"right_children":[2,4,6,8,10,12,14,-1,-1,-1,-1,-1,-1,-1,-1],"split_conditions":[5.8E2,7E1,2.99E1,6.4193547E-1,1.73E2,2.42E2,7.8E1,3.8654327E-2,-3.3271572E-1,8.3764654E-1,2.4798666E-1,1.6897894E-1,-3.1495577E-1,-7.717271E-2,1.2982914E-1],"split_indices":[0,25,24,1,7,2,14,0,0,0,0,0,0,0,0],"split_type":[0,0,0,0,0,0,0,0,0,0,0,0,0,0,0],"sum_hessian":[2.95E2,1.64E2,1.31E2,1.54E2,1E1,1.7E1,1.14E2,1.49E2,5E0,5E0,5E0,1E0,1.6E1,1.03E2,1.1E1],"tree_param":{"num_deleted":"0","num_feature":"36","num_nodes":"15","size_leaf_vector":"1"}},{"base_weights":[8.34568E-2,-8.8904895E-2,4.040821E0,9.6218693E-1,-6.458989E-1,6.949745E0,9.701974E-1,-6.4452246E-2,1.9872896E-1,-3.4248444E-1,-2.8015465E-2,2.1307452E-1,8.276342E-1,1.7601044E-1,-2.0638485E-1],"categories":[],"categories_nodes":[],"categories_segments":[],"categories_sizes":[],"default_left":[1,0,0,1,0,0,0,0,0,0,0,0,0,0,0],"id":47,"left_children":[1,3,5,7,9,11,13,-1,-1,-1,-1,-1,-1,-1,-1],"loss_changes":[1.961214E2,1.6220618E2,1.0044389E2,1.8053989E2,1.8713815E2,3.0763153E1,2.3622786E1,0E0,0E0,0E0,0E0,0E0,0E0,0E0,0E0],"parents":[2147483647,0,0,1,1,2,2,3,3,4,4,5,5,6,6],"right_children":[2,4,6,8,10,12,14,-1,-1,-1,-1,-1,-1,-1,-1],"split_conditions":[9.124E1,4E2,4.4E2,3.54E1,3.41E2,5E2,1E3,-6.4452246E-2,1.9872896E-1,-3.4248444E-1,-2.8015465E-2,2.1307452E-1,8.276342E-1,1.7601044E-1,-2.0638485E-1],"split_indices":[24,0,0,24,6,2,0,0,0,0,0,0,0,0,0],"split_type":[0,0,0,0,0,0,0,0,0,0,0,0,0,0,0],"sum_hessian":[2.86E2,2.75E2,1.1E1,9.5E1,1.8E2,5E0,6E0,3.9E1,5.6E1,1.8E1,1.62E2,2E0,3E0,5E0,1E0],"tree_param":{"num_deleted":"0","num_feature":"36","num_nodes":"15","size_leaf_vector":"1"}},{"base_weights":[-1.115746E-1,2.6793944E-2,-3.585803E0,7.558889E-1,-8.922021E-1,-4.5913467E0,-6.7826414E-1,9.732162E-2,-3.1110698E-1,-9.462985E-2,2.4017853E-1,-5.2877516E-1,-1.02186546E-1,2.3245078E-2,-1.0115872E-1],"categories":[],"categories_nodes":[],"categories_segments":[],"categories_sizes":[],"default_left":[1,0,0,1,1,0,0,0,0,0,0,0,0,0,0],"id":48,"left_children":[1,3,5,7,9,11,13,-1,-1,-1,-1,-1,-1,-1,-1],"loss_changes":[1.3806384E2,1.8627419E2,2.9046097E1,1.7343631E2,4.7573143E1,2.1826416E1,1.7018561E0,0E0,0E0,0E0,0E0,0E0,0E0,0E0,0E0],"parents":[2147483647,0,0,1,1,2,2,3,3,4,4,5,5,6,6],"right_children":[2,4,6,8,10,12,14,-1,-1,-1,-1,-1,-1,-1,-1],"split_conditions":[4E0,5.8E2,4.4E2,5.62E2,2.1E2,4.7252747E-1,4.5238096E-1,9.732162E-2,-3.1110698E-1,-9.462985E-2,2.4017853E-1,-5.2877516E-1,-1.02186546E-1,2.3245078E-2,-1.0115872E-1],"split_indices":[27,0,0,2,26,1,1,0,0,0,0,0,0,0,0],"split_type":[0,0,0,0,0,0,0,0,0,0,0,0,0,0,0],"sum_hessian":[2.86E2,2.76E2,1E1,1.54E2,1.22E2,7E0,3E0,1.45E2,9E0,1.19E2,3E0,5E0,2E0,1E0,2E0],"tree_param":{"num_deleted":"0","num_feature":"36","num_nodes":"15","size_leaf_vector":"1"}},{"base_weights":[1.6746274E-1,7.5441724E-1,-6.0138136E-1,5.570287E-1,7.1568346E0,-7.784866E-1,1.8661989E0,8.265223E-2,-2.776543E-1,2.5317964E-1,8.7666917E-1,-9.124381E-2,1.5617138E-1,2.4817988E-1,2.5462685E-2],"categories":[],"categories_nodes":[],"categories_segments":[],"categories_sizes":[],"default_left":[0,1,1,1,0,1,0,0,0,0,0,0,0,0,0],"id":49,"left_children":[1,3,5,7,9,11,13,-1,-1,-1,-1,-1,-1,-1,-1],"loss_changes":[1.3538538E2,2.108533E2,5.826559E1,1.8527794E2,2.2306732E1,5.6309563E1,1.013394E1,0E0,0E0,0E0,0E0,0E0,0E0,0E0,0E0],"parents":[2147483647,0,0,1,1,2,2,3,3,4,4,5,5,6,6],"right_children":[2,4,6,8,10,12,14,-1,-1,-1,-1,-1,-1,-1,-1],"split_conditions":[5.8E2,1.308E3,7.8E1,2E0,2.3E1,1.5E1,7.5E0,8.265223E-2,-2.776543E-1,2.5317964E-1,8.7666917E-1,-9.124381E-2,1.5617138E-1,2.4817988E-1,2.5462685E-2],"split_indices":[0,5,14,27,0,11,10,0,0,0,0,0,0,0,0],"split_type":[0,0,0,0,0,0,0,0,0,0,0,0,0,0,0],"sum_hessian":[2.98E2,1.69E2,1.29E2,1.65E2,4E0,1.21E2,8E0,1.52E2,1.3E1,2E0,2E0,1.13E2,8E0,5E0,3E0],"tree_param":{"num_deleted":"0","num_feature":"36","num_nodes":"15","size_leaf_vector":"1"}},{"base_weights":[9.8515235E-2,6.823244E-1,-7.080521E-1,1.7582424E-1,3.4223511E0,-2.2639425E0,-4.4940266E-1,-1.9045023E-2,2.4876368E-1,1.6938516E-1,5.198458E-1,-3.970084E-1,-4.6949856E-2,1.6249198E-1,-7.855048E-2],"categories":[],"categories_nodes":[],"categories_segments":[],"categories_sizes":[],"default_left":[0,1,0,1,0,0,0,0,0,0,0,0,0,0,0],"id":50,"left_children":[1,3,5,7,9,11,13,-1,-1,-1,-1,-1,-1,-1,-1],"loss_changes":[1.3562608E2,2.3116487E2,4.7676617E1,1.3166977E2,7.795441E1,5.5860558E1,8.777153E1,0E0,0E0,0E0,0E0,0E0,0E0,0E0,0E0],"parents":[2147483647,0,0,1,1,2,2,3,3,4,4,5,5,6,6],"right_children":[2,4,6,8,10,12,14,-1,-1,-1,-1,-1,-1,-1,-1],"split_conditions":[6E2,3.7E1,2.99E1,2.2E0,3E2,8E2,3.879E2,-1.9045023E-2,2.4876368E-1,1.6938516E-1,5.198458E-1,-3.970084E-1,-4.6949856E-2,1.6249198E-1,-7.855048E-2],"split_indices":[0,25,24,20,0,0,2,0,0,0,0,0,0,0,0],"split_type":[0,0,0,0,0,0,0,0,0,0,0,0,0,0,0],"sum_hessian":[2.86E2,1.66E2,1.2E2,1.41E2,2.5E1,1.6E1,1.04E2,1.23E2,1.8E1,1.5E1,1E1,7E0,9E0,1.5E1,8.9E1],"tree_param":{"num_deleted":"0","num_feature":"36","num_nodes":"15","size_leaf_vector":"1"}},{"base_weights":[9.265904E-3,3.9702982E-1,-1.2496961E0,1.6200034E-1,4.5357175E0,-1.8767054E0,1.7512834E-1,-1.1426623E-1,6.691975E-2,4.839626E-1,1.9998008E-1,-2.0115267E-1,6.359746E-2,-6.2463462E-2,2.3780431E-1],"categories":[],"categories_nodes":[],"categories_segments":[],"categories_sizes":[],"default_left":[0,1,1,1,0,1,0,0,0,0,0,0,0,0,0],"id":51,"left_children":[1,3,5,7,9,11,13,-1,-1,-1,-1,-1,-1,-1,-1],"loss_changes":[1.4304475E2,2.1715306E2,6.1971756E1,1.5954541E2,5.900696E0,3.1624847E1,4.4535107E1,0E0,0E0,0E0,0E0,0E0,0E0,0E0,0E0],"parents":[2147483647,0,0,1,1,2,2,3,3,4,4,5,5,6,6],"right_children":[2,4,6,8,10,12,14,-1,-1,-1,-1,-1,-1,-1,-1],"split_conditions":[8E2,9.06E1,7.25E2,2.99E1,4.5E1,3.9E1,6.96E1,-1.1426623E-1,6.691975E-2,4.839626E-1,1.9998008E-1,-2.0115267E-1,6.359746E-2,-6.2463462E-2,2.3780431E-1],"split_indices":[0,24,6,24,10,14,24,0,0,0,0,0,0,0,0],"split_type":[0,0,0,0,0,0,0,0,0,0,0,0,0,0,0],"sum_hessian":[2.91E2,2.23E2,6.8E1,2.12E2,1.1E1,4.7E1,2.1E1,6E1,1.52E2,8E0,3E0,4.3E1,4E0,1.6E1,5E0],"tree_param":{"num_deleted":"0","num_feature":"36","num_nodes":"15","size_leaf_vector":"1"}},{"base_weights":[-3.4989804E-2,-3.5195172E-1,1.447036E0,-1.4435735E-1,-2.638818E0,2.4483633E0,-2.2346733E0,-1.2280382E-3,-2.6371104E-1,-8.510689E-2,-3.621058E-1,2.9459205E-1,1.1198903E-1,-3.639175E-1,-7.268731E-2],"categories":[],"categories_nodes":[],"categories_segments":[],"categories_sizes":[],"default_left":[1,1,0,1,0,0,0,0,0,0,0,0,0,0,0],"id":52,"left_children":[1,3,5,7,9,11,13,-1,-1,-1,-1,-1,-1,-1,-1],"loss_changes":[1.3062886E2,1.0833465E2,1.8611449E2,7.314648E1,3.5715958E1,2.8996002E1,2.2993748E1,0E0,0E0,0E0,0E0,0E0,0E0,0E0,0E0],"parents":[2147483647,0,0,1,1,2,2,3,3,4,4,5,5,6,6],"right_children":[2,4,6,8,10,12,14,-1,-1,-1,-1,-1,-1,-1,-1],"split_conditions":[4.7E1,8.42E2,1E3,4E0,4E2,4.4E2,2E-1,-1.2280382E-3,-2.6371104E-1,-8.510689E-2,-3.621058E-1,2.9459205E-1,1.1198903E-1,-3.639175E-1,-7.268731E-2],"split_indices":[25,6,0,27,0,0,27,0,0,0,0,0,0,0,0],"split_type":[0,0,0,0,0,0,0,0,0,0,0,0,0,0,0],"sum_hessian":[2.76E2,2.28E2,4.8E1,2.1E2,1.8E1,3.8E1,1E1,2.01E2,9E0,8E0,1E1,2.4E1,1.4E1,4E0,6E0],"tree_param":{"num_deleted":"0","num_feature":"36","num_nodes":"15","size_leaf_vector":"1"}},{"base_weights":[-1.1172653E-1,-1.0187435E0,2.359916E-1,-1.304918E0,2.7282286E0,7.977288E-1,-1.3513767E0,-1.876462E-1,-4.901336E-2,3.228764E-1,-3.1921558E-2,1.0938401E-1,-1.8793428E-1,-1.5814736E-1,1.4451525E-1],"categories":[],"categories_nodes":[],"categories_segments":[],"categories_sizes":[],"default_left":[1,1,0,1,0,1,1,0,0,0,0,0,0,0,0],"id":53,"left_children":[1,3,5,7,9,11,13,-1,-1,-1,-1,-1,-1,-1,-1],"loss_changes":[9.1071655E1,8.934316E1,1.8743994E2,3.890593E1,1.366309E1,1.562482E2,5.2901634E1,0E0,0E0,0E0,0E0,0E0,0E0,0E0,0E0],"parents":[2147483647,0,0,1,1,2,2,3,3,4,4,5,5,6,6],"right_children":[2,4,6,8,10,12,14,-1,-1,-1,-1,-1,-1,-1,-1],"split_conditions":[2.99E1,2.1E2,8E2,2.8E1,1E3,2E0,3.925E1,-1.876462E-1,-4.901336E-2,3.228764E-1,-3.1921558E-2,1.0938401E-1,-1.8793428E-1,-1.5814736E-1,1.4451525E-1],"split_indices":[24,26,0,24,0,27,14,0,0,0,0,0,0,0,0],"split_type":[0,0,0,0,0,0,0,0,0,0,0,0,0,0,0],"sum_hessian":[2.87E2,7.9E1,2.08E2,7.4E1,5E0,1.54E2,5.4E1,3.9E1,3.5E1,4E0,1E0,1.37E2,1.7E1,4.9E1,5E0],"tree_param":{"num_deleted":"0","num_feature":"36","num_nodes":"15","size_leaf_vector":"1"}},{"base_weights":[-1.4617123E-1,-2.0286512E0,1.0661722E-2,3.6365762E-1,-3.4216604E0,3.5007423E-1,-1.1803391E0,2.5928754E-1,-1.2118882E-1,-4.728993E-1,-1.0775634E-1,-6.8879634E-2,8.357378E-2,1.0158907E-1,-1.5742688E-1],"categories":[],"categories_nodes":[],"categories_segments":[],"categories_sizes":[],"default_left":[0,0,0,0,0,0,0,0,0,0,0,0,0,0,0],"id":54,"left_children":[1,3,5,7,9,11,13,-1,-1,-1,-1,-1,-1,-1,-1],"loss_changes":[8.44588E1,7.45595E1,1.07536964E2,3.8603645E1,4.4550827E1,1.19324585E2,6.580218E1,0E0,0E0,0E0,0E0,0E0,0E0,0E0,0E0],"parents":[2147483647,0,0,1,1,2,2,3,3,4,4,5,5,6,6],"right_children":[2,4,6,8,10,12,14,-1,-1,-1,-1,-1,-1,-1,-1],"split_conditions":[3.21E2,3E2,1E0,7.27E2,4.4E2,2E-1,1E2,2.5928754E-1,-1.2118882E-1,-4.728993E-1,-1.0775634E-1,-6.8879634E-2,8.357378E-2,1.0158907E-1,-1.5742688E-1],"split_indices":[6,0,18,5,0,27,0,0,0,0,0,0,0,0,0],"split_type":[0,0,0,0,0,0,0,0,0,0,0,0,0,0,0],"sum_hessian":[2.85E2,2.1E1,2.64E2,8E0,1.3E1,2.06E2,5.8E1,3E0,5E0,7E0,6E0,6.8E1,1.38E2,1E1,4.8E1],"tree_param":{"num_deleted":"0","num_feature":"36","num_nodes":"15","size_leaf_vector":"1"}},{"base_weights":[-1.7891566E-1,-3.3729658E-1,3.0999303E0,-2.5623378E-1,-3.6319542E-1,4.156598E-1,1.9321218E-1,-1.19096555E-1,2.5453242E-3],"categories":[],"categories_nodes":[],"categories_segments":[],"categories_sizes":[],"default_left":[1,1,0,1,0,0,0,0,0],"id":55,"left_children":[1,3,5,7,-1,-1,-1,-1,-1],"loss_changes":[1.4645145E2,7.498999E1,8.803978E0,7.457196E1,0E0,0E0,0E0,0E0,0E0],"parents":[2147483647,0,0,1,1,2,2,3,3],"right_children":[2,4,6,8,-1,-1,-1,-1,-1],"split_conditions":[9.06E1,6.63E0,4.37E2,3.21E2,-3.6319542E-1,4.156598E-1,1.9321218E-1,-1.19096555E-1,2.5453242E-3],"split_indices":[24,22,6,6,0,0,0,0,0],"split_type":[0,0,0,0,0,0,0,0,0],"sum_hessian":[2.79E2,2.67E2,1.2E1,2.62E2,5E0,4E0,8E0,5.7E1,2.05E2],"tree_param":{"num_deleted":"0","num_feature":"36","num_nodes":"9","size_leaf_vector":"1"}},{"base_weights":[7.44307E-2,-1.5774902E0,4.3322033E-1,6.123311E-1,-2.2108328E0,-1.8984921E0,6.6432863E-1,-1.8056192E-1,1.5758467E-1,-2.518898E-1,-3.984201E-2,-5.7657827E-2,-3.7114963E-1,1.09031655E-1,-6.2742256E-2],"categories":[],"categories_nodes":[],"categories_segments":[],"categories_sizes":[],"default_left":[0,0,0,0,0,0,0,0,0,0,0,0,0,0,0],"id":56,"left_children":[1,3,5,7,9,11,13,-1,-1,-1,-1,-1,-1,-1,-1],"loss_changes":[1.6604448E2,7.0699135E1,1.2520317E2,3.494521E1,3.0189499E1,5.2322594E1,1.3637338E2,0E0,0E0,0E0,0E0,0E0,0E0,0E0,0E0],"parents":[2147483647,0,0,1,1,2,2,3,3,4,4,5,5,6,6],"right_children":[2,4,6,8,10,12,14,-1,-1,-1,-1,-1,-1,-1,-1],"split_conditions":[2.99E1,2E2,3.21E2,7.185E2,3.5E2,1E0,8E2,-1.8056192E-1,1.5758467E-1,-2.518898E-1,-3.984201E-2,-5.7657827E-2,-3.7114963E-1,1.09031655E-1,-6.2742256E-2],"split_indices":[24,0,6,5,2,27,0,0,0,0,0,0,0,0,0],"split_type":[0,0,0,0,0,0,0,0,0,0,0,0,0,0,0],"sum_hessian":[2.78E2,4.9E1,2.29E2,1.1E1,3.8E1,2E1,2.09E2,3E0,8E0,3E1,8E0,1.3E1,7E0,1.53E2,5.6E1],"tree_param":{"num_deleted":"0","num_feature":"36","num_nodes":"15","size_leaf_vector":"1"}},{"base_weights":[3.2524303E-2,1.5558806E-1,-2.9134607E0,-6.674342E-2,9.804021E-1,6.640663E-1,-4.7852325E0,7.1263467E-3,-2.7104786E-1,1.6107728E-1,-1.2705535E-1,9.2171766E-2,1.266433E-2,-5.6152064E-1,-8.566956E-2],"categories":[],"categories_nodes":[],"categories_segments":[],"categories_sizes":[],"default_left":[1,1,0,0,0,0,0,0,0,0,0,0,0,0,0],"id":57,"left_children":[1,3,5,7,9,11,13,-1,-1,-1,-1,-1,-1,-1,-1],"loss_changes":[1.0849141E2,5.2696106E1,8.3533485E1,9.028772E1,1.04270134E2,6.893439E-1,3.0120193E1,0E0,0E0,0E0,0E0,0E0,0E0,0E0,0E0],"parents":[2147483647,0,0,1,1,2,2,3,3,4,4,5,5,6,6],"right_children":[2,4,6,8,10,12,14,-1,-1,-1,-1,-1,-1,-1,-1],"split_conditions":[5.62E2,9E1,2.3E1,9.4E1,1E3,1.963E1,4.4E2,7.1263467E-3,-2.7104786E-1,1.6107728E-1,-1.2705535E-1,9.2171766E-2,1.266433E-2,-5.6152064E-1,-8.566956E-2],"split_indices":[2,26,0,24,0,14,0,0,0,0,0,0,0,0,0],"split_type":[0,0,0,0,0,0,0,0,0,0,0,0,0,0,0],"sum_hessian":[2.97E2,2.86E2,1.1E1,2.26E2,6E1,4E0,7E0,2.16E2,1E1,4.6E1,1.4E1,2E0,2E0,5E0,2E0],"tree_param":{"num_deleted":"0","num_feature":"36","num_nodes":"15","size_leaf_vector":"1"}},{"base_weights":[4.3388903E-2,5.585478E-1,-5.7598263E-1,7.362071E-1,-3.1505702E0,-1.5681866E0,1.3868304E-1,1.2371151E-1,-1.8876778E-2,6.8197574E-4,-5.229312E-1,-2.2694267E-1,2.6221637E-2,-2.5029078E-3,3.788861E-1],"categories":[],"categories_nodes":[],"categories_segments":[],"categories_sizes":[],"default_left":[0,1,1,0,0,0,1,0,0,0,0,0,0,0,0],"id":58,"left_children":[1,3,5,7,9,11,13,-1,-1,-1,-1,-1,-1,-1,-1],"loss_changes":[8.711005E1,1.0050441E2,8.814516E1,7.649118E1,5.2429962E1,8.007298E1,4.6645138E1,0E0,0E0,0E0,0E0,0E0,0E0,0E0,0E0],"parents":[2147483647,0,0,1,1,2,2,3,3,4,4,5,5,6,6],"right_children":[2,4,6,8,10,12,14,-1,-1,-1,-1,-1,-1,-1,-1],"split_conditions":[1E0,5E1,4.86E1,5.8E2,1E0,1.17E2,7E1,1.2371151E-1,-1.8876778E-2,6.8197574E-4,-5.229312E-1,-2.2694267E-1,2.6221637E-2,-2.5029078E-3,3.788861E-1],"split_indices":[34,12,24,0,27,3,25,0,0,0,0,0,0,0,0],"split_type":[0,0,0,0,0,0,0,0,0,0,0,0,0,0,0],"sum_hessian":[2.71E2,1.48E2,1.23E2,1.42E2,6E0,5.1E1,7.2E1,8.8E1,5.4E1,3E0,3E0,3.5E1,1.6E1,7E1,2E0],"tree_param":{"num_deleted":"0","num_feature":"36","num_nodes":"15","size_leaf_vector":"1"}},{"base_weights":[-9.4335906E-2,-1.7623218E0,3.2002367E-2,-2.3814907E0,1.8251543E-1,1.8279082E0,-1.2947355E-1,-1.4828078E-1,-3.6598033E-1,-8.284154E-3,4.5621973E-2,3.0944243E-1,-3.6783633E-3,6.588962E-2,-5.7258926E-2],"categories":[],"categories_nodes":[],"categories_segments":[],"categories_sizes":[],"default_left":[0,0,0,0,0,0,0,0,0,0,0,0,0,0,0],"id":59,"left_children":[1,3,5,7,9,11,13,-1,-1,-1,-1,-1,-1,-1,-1],"loss_changes":[6.2854076E1,2.5722496E1,8.085542E1,1.3305138E1,5.2665806E-1,6.1907913E1,1.0075524E2,0E0,0E0,0E0,0E0,0E0,0E0,0E0,0E0],"parents":[2147483647,0,0,1,1,2,2,3,3,4,4,5,5,6,6],"right_children":[2,4,6,8,10,12,14,-1,-1,-1,-1,-1,-1,-1,-1],"split_conditions":[2.8E1,8E2,7.197E2,4.7E0,5.40625E-1,5.8E2,3E2,-1.4828078E-1,-3.6598033E-1,-8.284154E-3,4.5621973E-2,3.0944243E-1,-3.6783633E-3,6.588962E-2,-5.7258926E-2],"split_indices":[24,0,5,8,1,0,0,0,0,0,0,0,0,0,0],"split_type":[0,0,0,0,0,0,0,0,0,0,0,0,0,0,0],"sum_hessian":[2.97E2,2E1,2.77E2,1.5E1,5E0,2.2E1,2.55E2,1.1E1,4E0,3E0,2E0,1.2E1,1E1,9.3E1,1.62E2],"tree_param":{"num_deleted":"0","num_feature":"36","num_nodes":"15","size_leaf_vector":"1"}},{"base_weights":[1.08876154E-1,2.3372759E-1,-3.4477923E0,-1.1044022E0,5.526989E-1,1.6059749E-1,-4.3699646E0,-1.3315675E-1,1.5070425E-1,1.763857E-2,1.5041551E-1,5.580882E-2,-3.299066E-2,-4.6631515E-1,-2.3623215E-2],"categories":[],"categories_nodes":[],"categories_segments":[],"categories_sizes":[],"default_left":[1,0,0,0,1,0,0,0,0,0,0,0,0,0,0],"id":60,"left_children":[1,3,5,7,9,11,13,-1,-1,-1,-1,-1,-1,-1,-1],"loss_changes":[1.3091402E2,1.2182871E2,3.3977364E1,4.691297E1,8.6968735E1,8.595161E-1,1.7002441E1,0E0,0E0,0E0,0E0,0E0,0E0,0E0,0E0],"parents":[2147483647,0,0,1,1,2,2,3,3,4,4,5,5,6,6],"right_children":[2,4,6,8,10,12,14,-1,-1,-1,-1,-1,-1,-1,-1],"split_conditions":[5.62E2,2.99E1,2.3E1,6.636364E-1,2.9E1,2.5E1,4.86E1,-1.3315675E-1,1.5070425E-1,1.763857E-2,1.5041551E-1,5.580882E-2,-3.299066E-2,-4.6631515E-1,-2.3623215E-2],"split_indices":[2,24,0,1,26,15,24,0,0,0,0,0,0,0,0],"split_type":[0,0,0,0,0,0,0,0,0,0,0,0,0,0,0],"sum_hessian":[2.92E2,2.83E2,9E0,5.4E1,2.29E2,2E0,7E0,4.9E1,5E0,1.7E2,5.9E1,1E0,1E0,6E0,1E0],"tree_param":{"num_deleted":"0","num_feature":"36","num_nodes":"15","size_leaf_vector":"1"}},{"base_weights":[6.337107E-2,2.1134244E-1,-2.081655E0,4.9511394E-1,-6.4303505E-1,-3.6644452E0,-5.974036E-1,1.0350991E-1,-4.8056025E-2,-2.5710717E-1,-6.2936433E-3,-4.5340937E-1,-1.0086856E-1,2.1208537E-1,-1.8385014E-1],"categories":[],"categories_nodes":[],"categories_segments":[],"categories_sizes":[],"default_left":[1,0,0,0,0,0,0,0,0,0,0,0,0,0,0],"id":61,"left_children":[1,3,5,7,9,11,13,-1,-1,-1,-1,-1,-1,-1,-1],"loss_changes":[9.343885E1,6.699158E1,4.2446762E1,1.2457385E2,8.222599E1,2.1159836E1,4.6265385E1,0E0,0E0,0E0,0E0,0E0,0E0,0E0,0E0],"parents":[2147483647,0,0,1,1,2,2,3,3,4,4,5,5,6,6],"right_children":[2,4,6,8,10,12,14,-1,-1,-1,-1,-1,-1,-1,-1],"split_conditions":[2E0,8E2,4.5238096E-1,5.40625E-1,3.2222223E-1,4.4E2,3E2,1.0350991E-1,-4.8056025E-2,-2.5710717E-1,-6.2936433E-3,-4.5340937E-1,-1.0086856E-1,2.1208537E-1,-1.8385014E-1],"split_indices":[27,0,1,1,1,0,0,0,0,0,0,0,0,0,0],"split_type":[0,0,0,0,0,0,0,0,0,0,0,0,0,0,0],"sum_hessian":[2.92E2,2.74E2,1.8E1,2.06E2,6.8E1,8E0,1E1,1.29E2,7.7E1,1.4E1,5.4E1,5E0,3E0,3E0,7E0],"tree_param":{"num_deleted":"0","num_feature":"36","num_nodes":"15","size_leaf_vector":"1"}},{"base_weights":[-1.0766641E-1,-1.3659348E0,7.54196E-2,-1.8308272E0,2.5868107E-2,1.529372E0,-8.718858E-2,-7.217022E-2,-2.6228172E-1,6.9546305E-2,-1.772892E-1,-7.759332E-2,2.5411573E-1,1.1912748E-1,-4.094864E-2],"categories":[],"categories_nodes":[],"categories_segments":[],"categories_sizes":[],"default_left":[1,0,0,0,0,0,0,0,0,0,0,0,0,0,0],"id":62,"left_children":[1,3,5,7,9,11,13,-1,-1,-1,-1,-1,-1,-1,-1],"loss_changes":[6.52981E1,2.3340752E1,5.8766632E1,2.496547E1,1.4815444E1,6.991678E1,1.04507805E2,0E0,0E0,0E0,0E0,0E0,0E0,0E0,0E0],"parents":[2147483647,0,0,1,1,2,2,3,3,4,4,5,5,6,6],"right_children":[2,4,6,8,10,12,14,-1,-1,-1,-1,-1,-1,-1,-1],"split_conditions":[2.8E1,8E2,7.197E2,1E-1,1.059E3,3E2,1E2,-7.217022E-2,-2.6228172E-1,6.9546305E-2,-1.772892E-1,-7.759332E-2,2.5411573E-1,1.1912748E-1,-4.094864E-2],"split_indices":[24,0,5,8,5,0,0,0,0,0,0,0,0,0,0],"split_type":[0,0,0,0,0,0,0,0,0,0,0,0,0,0,0],"sum_hessian":[2.82E2,3.5E1,2.47E2,2.6E1,9E0,2.4E1,2.23E2,1.3E1,1.3E1,7E0,2E0,8E0,1.6E1,4.5E1,1.78E2],"tree_param":{"num_deleted":"0","num_feature":"36","num_nodes":"15","size_leaf_vector":"1"}},{"base_weights":[-1.4467376E-1,-3.0347717E-1,1.8283526E0,-4.0284297E-1,1.4712964E0,-2.2040157E0,3.2262187E0,3.3529036E-2,-5.7915524E-2,1.6836546E-1,2.4769237E-2,-2.511921E-1,1.6742484E-3,4.3589175E-1,-6.824024E-2],"categories":[],"categories_nodes":[],"categories_segments":[],"categories_sizes":[],"default_left":[1,1,0,0,0,0,0,0,0,0,0,0,0,0,0],"id":63,"left_children":[1,3,5,7,9,11,13,-1,-1,-1,-1,-1,-1,-1,-1],"loss_changes":[8.828538E1,4.6444176E1,1.25481575E2,3.920773E1,4.7209435E0,6.017088E0,9.0178345E1,0E0,0E0,0E0,0E0,0E0,0E0,0E0,0E0],"parents":[2147483647,0,0,1,1,2,2,3,3,4,4,5,5,6,6],"right_children":[2,4,6,8,10,12,14,-1,-1,-1,-1,-1,-1,-1,-1],"split_conditions":[1.17E2,1.5E1,5E1,2E2,8E2,8.7E2,8E2,3.3529036E-2,-5.7915524E-2,1.6836546E-1,2.4769237E-2,-2.511921E-1,1.6742484E-3,4.3589175E-1,-6.824024E-2],"split_indices":[3,11,0,0,0,4,0,0,0,0,0,0,0,0,0],"split_type":[0,0,0,0,0,0,0,0,0,0,0,0,0,0,0],"sum_hessian":[2.79E2,2.59E2,2E1,2.46E2,1.3E1,5E0,1.5E1,5.3E1,1.93E2,1E1,3E0,4E0,1E0,1.1E1,4E0],"tree_param":{"num_deleted":"0","num_feature":"36","num_nodes":"15","size_leaf_vector":"1"}},{"base_weights":[1.5896354E-2,-3.448616E-1,7.041192E-1,5.213097E-1,-6.477215E-1,4.2364746E-1,2.8838825E0,-6.713669E-2,1.4680511E-1,4.388851E-2,-9.584978E-2,-1.6476013E-1,7.464748E-2,3.671143E-1,-9.973064E-2],"categories":[],"categories_nodes":[],"categories_segments":[],"categories_sizes":[],"default_left":[1,0,0,0,0,1,0,0,0,0,0,0,0,0,0],"id":64,"left_children":[1,3,5,7,9,11,13,-1,-1,-1,-1,-1,-1,-1,-1],"loss_changes":[7.075488E1,4.9393112E1,5.869174E1,6.309315E1,5.6712746E1,7.0738106E1,4.703086E1,0E0,0E0,0E0,0E0,0E0,0E0,0E0,0E0],"parents":[2147483647,0,0,1,1,2,2,3,3,4,4,5,5,6,6],"right_children":[2,4,6,8,10,12,14,-1,-1,-1,-1,-1,-1,-1,-1],"split_conditions":[1.11E3,7.27E2,6.212121E-1,3.3E1,2E2,3.3E1,1E3,-6.713669E-2,1.4680511E-1,4.388851E-2,-9.584978E-2,-1.6476013E-1,7.464748E-2,3.671143E-1,-9.973064E-2],"split_indices":[5,5,1,24,0,24,0,0,0,0,0,0,0,0,0],"split_type":[0,0,0,0,0,0,0,0,0,0,0,0,0,0,0],"sum_hessian":[2.83E2,1.86E2,9.7E1,4.8E1,1.38E2,8.7E1,1E1,2.2E1,2.6E1,3.4E1,1.04E2,1.2E1,7.5E1,8E0,2E0],"tree_param":{"num_deleted":"0","num_feature":"36","num_nodes":"15","size_leaf_vector":"1"}},{"base_weights":[-2.5087857E-1,-3.2618788E-1,3.0833533E-1,-2.788719E-1,-4.2994162E-1,-3.6344197E-2,1.08753964E-1],"categories":[],"categories_nodes":[],"categories_segments":[],"categories_sizes":[],"default_left":[1,1,0,1,0,0,0],"id":65,"left_children":[1,3,-1,5,-1,-1,-1],"loss_changes":[7.525633E1,5.375004E1,0E0,4.1425888E1,0E0,0E0,0E0],"parents":[2147483647,0,0,1,1,3,3],"right_children":[2,4,-1,6,-1,-1,-1],"split_conditions":[2.1E2,6E2,3.0833533E-1,7.5E0,-4.2994162E-1,-3.6344197E-2,1.08753964E-1],"split_indices":[26,2,0,11,0,0,0],"split_type":[0,0,0,0,0,0,0],"sum_hessian":[2.8E2,2.75E2,5E0,2.73E2,2E0,2.55E2,1.8E1],"tree_param":{"num_deleted":"0","num_feature":"36","num_nodes":"7","size_leaf_vector":"1"}},{"base_weights":[-3.610875E-2,4.4815728E-1,-5.331329E-1,6.8050814E-1,-8.2908297E-1,-1.3103956E0,1.7216824E-1,4.0239313E-1,4.772255E-2,-4.0292394E-1,-1.30038485E-2,-1.814084E-1,-1.7998567E-2,-1.1862831E-2,3.610317E-1],"categories":[],"categories_nodes":[],"categories_segments":[],"categories_sizes":[],"default_left":[0,0,1,0,0,0,0,0,0,0,0,0,0,0,0],"id":66,"left_children":[1,3,5,7,9,11,13,-1,-1,-1,-1,-1,-1,-1,-1],"loss_changes":[7.2687195E1,4.596968E1,8.190805E1,7.9807816E1,5.627642E1,4.7743927E1,8.5983665E1,0E0,0E0,0E0,0E0,0E0,0E0,0E0,0E0],"parents":[2147483647,0,0,1,1,2,2,3,3,4,4,5,5,6,6],"right_children":[2,4,6,8,10,12,14,-1,-1,-1,-1,-1,-1,-1,-1],"split_conditions":[1E0,1E3,5E1,2.8723404E-1,3.2222223E-1,1.17E2,4.125E-1,4.0239313E-1,4.772255E-2,-4.0292394E-1,-1.30038485E-2,-1.814084E-1,-1.7998567E-2,-1.1862831E-2,3.610317E-1],"split_indices":[34,0,24,1,1,3,1,0,0,0,0,0,0,0,0],"split_type":[0,0,0,0,0,0,0,0,0,0,0,0,0,0,0],"sum_hessian":[3E2,1.52E2,1.48E2,1.29E2,2.3E1,7E1,7.8E1,5E0,1.24E2,3E0,2E1,4.5E1,2.5E1,7.3E1,5E0],"tree_param":{"num_deleted":"0","num_feature":"36","num_nodes":"15","size_leaf_vector":"1"}},{"base_weights":[1.4305703E-1,-4.9853746E-2,9.629564E-1,1.831399E-2,-2.3506966E0,1.6984873E0,-1.2097627E0,1.4989338E-2,-1.0191176E-1,9.294153E-3,-3.173041E-1,2.242164E-2,2.3425955E-1,-3.0570993E-1,9.085165E-2],"categories":[],"categories_nodes":[],"categories_segments":[],"categories_sizes":[],"default_left":[1,1,0,1,0,0,0,0,0,0,0,0,0,0,0],"id":67,"left_children":[1,3,5,7,9,11,13,-1,-1,-1,-1,-1,-1,-1,-1],"loss_changes":[4.734007E1,3.8155964E1,9.314658E1,3.6458702E1,1.7455849E1,4.810575E1,6.873795E1,0E0,0E0,0E0,0E0,0E0,0E0,0E0,0E0],"parents":[2147483647,0,0,1,1,2,2,3,3,4,4,5,5,6,6],"right_children":[2,4,6,8,10,12,14,-1,-1,-1,-1,-1,-1,-1,-1],"split_conditions":[3.7E1,6.63E0,1E3,1.2E1,2.3E1,3E2,3.5E-1,1.4989338E-2,-1.0191176E-1,9.294153E-3,-3.173041E-1,2.242164E-2,2.3425955E-1,-3.0570993E-1,9.085165E-2],"split_indices":[25,22,0,19,0,0,1,0,0,0,0,0,0,0,0],"split_type":[0,0,0,0,0,0,0,0,0,0,0,0,0,0,0],"sum_hessian":[2.98E2,2.42E2,5.6E1,2.36E2,6E0,4.2E1,1.4E1,2.1E2,2.6E1,2E0,4E0,1.5E1,2.7E1,7E0,7E0],"tree_param":{"num_deleted":"0","num_feature":"36","num_nodes":"15","size_leaf_vector":"1"}},{"base_weights":[4.0236944E-3,9.6191384E-2,-1.9956157E0,2.5579938E-1,-1.2043701E0,5.8775234E-1,-2.8294013E0,-1.0970211E-1,4.0789213E-2,-1.5075715E-1,6.386615E-2,9.807502E-2,-3.576644E-2,-3.6709324E-1,-2.7602853E-2],"categories":[],"categories_nodes":[],"categories_segments":[],"categories_sizes":[],"default_left":[1,1,0,0,0,0,0,0,0,0,0,0,0,0,0],"id":68,"left_children":[1,3,5,7,9,11,13,-1,-1,-1,-1,-1,-1,-1,-1],"loss_changes":[5.4376785E1,5.884565E1,2.9664665E1,6.27901E1,2.3622883E1,2.1194973E0,2.5420105E1,0E0,0E0,0E0,0E0,0E0,0E0,0E0,0E0],"parents":[2147483647,0,0,1,1,2,2,3,3,4,4,5,5,6,6],"right_children":[2,4,6,8,10,12,14,-1,-1,-1,-1,-1,-1,-1,-1],"split_conditions":[5.62E2,1E0,2.3E1,3.41E2,4.7E2,6.63E0,4.4E2,-1.0970211E-1,4.0789213E-2,-1.5075715E-1,6.386615E-2,9.807502E-2,-3.576644E-2,-3.6709324E-1,-2.7602853E-2],"split_indices":[2,18,0,6,2,22,0,0,0,0,0,0,0,0,0],"split_type":[0,0,0,0,0,0,0,0,0,0,0,0,0,0,0],"sum_hessian":[2.93E2,2.81E2,1.2E1,2.51E2,3E1,3E0,9E0,2.7E1,2.24E2,2.5E1,5E0,2E0,1E0,6E0,3E0],"tree_param":{"num_deleted":"0","num_feature":"36","num_nodes":"15","size_leaf_vector":"1"}},{"base_weights":[3.0364033E-2,-2.876102E-2,2.572168E-1,1.9129412E-2,-3.254175E0,1.2358974E-2,-1.1764323E-1,-3.718305E-1,-5.873785E-2],"categories":[],"categories_nodes":[],"categories_segments":[],"categories_sizes":[],"default_left":[1,1,0,0,0,0,0,0,0],"id":69,"left_children":[1,3,-1,5,7,-1,-1,-1,-1],"loss_changes":[4.4212936E1,4.2231594E1,0E0,3.807577E1,4.6389694E0,0E0,0E0,0E0,0E0],"parents":[2147483647,0,0,1,1,3,3,4,4],"right_children":[2,4,-1,6,8,-1,-1,-1,-1],"split_conditions":[2.1E2,6.63E0,2.572168E-1,1E3,4.4E2,1.2358974E-2,-1.1764323E-1,-3.718305E-1,-5.873785E-2],"split_indices":[26,22,0,0,0,0,0,0,0],"split_type":[0,0,0,0,0,0,0,0,0],"sum_hessian":[2.77E2,2.72E2,5E0,2.69E2,3E0,2.48E2,2.1E1,2E0,1E0],"tree_param":{"num_deleted":"0","num_feature":"36","num_nodes":"9","size_leaf_vector":"1"}},{"base_weights":[-1.8213317E-2,-6.3783944E-1,1.9581999E-1,-1.2717681E0,5.832049E-1,5.017798E-2,2.9981768E0,-9.638345E-2,-3.227319E-1,-1.1314955E-1,8.9447394E-2,1.0239834E-1,-2.5045961E-2,4.2623302E-1,-7.148482E-2],"categories":[],"categories_nodes":[],"categories_segments":[],"categories_sizes":[],"default_left":[0,1,1,0,1,0,0,0,0,0,0,0,0,0,0],"id":70,"left_children":[1,3,5,7,9,11,13,-1,-1,-1,-1,-1,-1,-1,-1],"loss_changes":[3.977847E1,6.0343933E1,9.0864975E1,2.4219574E1,1.8461052E1,6.936237E1,6.5386475E1,0E0,0E0,0E0,0E0,0E0,0E0,0E0,0E0],"parents":[2147483647,0,0,1,1,2,2,3,3,4,4,5,5,6,6],"right_children":[2,4,6,8,10,12,14,-1,-1,-1,-1,-1,-1,-1,-1],"split_conditions":[2E-1,5.4545456E-1,7E1,1E3,2.8E1,3E2,1E3,-9.638345E-2,-3.227319E-1,-1.1314955E-1,8.9447394E-2,1.0239834E-1,-2.5045961E-2,4.2623302E-1,-7.148482E-2],"split_indices":[27,1,25,0,24,0,0,0,0,0,0,0,0,0,0],"split_type":[0,0,0,0,0,0,0,0,0,0,0,0,0,0,0],"sum_hessian":[2.98E2,7.6E1,2.22E2,5E1,2.6E1,2.12E2,1E1,4.6E1,4E0,4E0,2.2E1,4.9E1,1.63E2,7E0,3E0],"tree_param":{"num_deleted":"0","num_feature":"36","num_nodes":"15","size_leaf_vector":"1"}},{"base_weights":[3.710116E-2,-6.776764E-2,1.4247577E0,-1.1502321E-1,2.285192E-1,-2.4369417E-1,2.584926E0,8.766689E-3,-6.795758E-2,3.4152547E-1,-1.3056082E-1],"categories":[],"categories_nodes":[],"categories_segments":[],"categories_sizes":[],"default_left":[1,1,0,1,0,0,0,0,0,0,0],"id":71,"left_children":[1,3,5,7,-1,-1,9,-1,-1,-1,-1],"loss_changes":[4.1424767E1,3.1337534E1,9.940552E1,3.2703735E1,0E0,0E0,6.969061E1,0E0,0E0,0E0,0E0],"parents":[2147483647,0,0,1,1,2,2,3,3,6,6],"right_children":[2,4,6,8,-1,-1,10,-1,-1,-1,-1],"split_conditions":[1.17E2,2.1E2,2E-1,4.7E0,2.285192E-1,-2.4369417E-1,2.4E2,8.766689E-3,-6.795758E-2,3.4152547E-1,-1.3056082E-1],"split_indices":[3,26,27,8,0,0,9,0,0,0,0],"split_type":[0,0,0,0,0,0,0,0,0,0,0],"sum_hessian":[2.83E2,2.64E2,1.9E1,2.6E2,4E0,4E0,1.5E1,1.94E2,6.6E1,1.2E1,3E0],"tree_param":{"num_deleted":"0","num_feature":"36","num_nodes":"11","size_leaf_vector":"1"}},{"base_weights":[6.7831734E-3,-7.475091E-2,1.3205217E0,3.773985E-1,-3.0538356E-1,1.6165087E0,2.868511E-1,1.9815876E-1,-5.7327293E-4,-2.0013598E-1,-1.1218773E-2,6.673507E-2,1.8409665E-1,1.1466171E-1,-6.937655E-2],"categories":[],"categories_nodes":[],"categories_segments":[],"categories_sizes":[],"default_left":[1,0,0,0,0,0,0,0,0,0,0,0,0,0,0],"id":72,"left_children":[1,3,5,7,9,11,13,-1,-1,-1,-1,-1,-1,-1,-1],"loss_changes":[3.1161905E1,2.8688086E1,4.737509E0,6.1157074E1,6.1247803E1,2.5079575E0,5.5939045E0,0E0,0E0,0E0,0E0,0E0,0E0,0E0,0E0],"parents":[2147483647,0,0,1,1,2,2,3,3,4,4,5,5,6,6],"right_children":[2,4,6,8,10,12,14,-1,-1,-1,-1,-1,-1,-1,-1],"split_conditions":[1.5E1,4E2,8E2,4.33E2,3.21E2,2.3E1,2.75E-1,1.9815876E-1,-5.7327293E-4,-2.0013598E-1,-1.1218773E-2,6.673507E-2,1.8409665E-1,1.1466171E-1,-6.937655E-2],"split_indices":[11,0,0,6,6,0,1,0,0,0,0,0,0,0,0],"split_type":[0,0,0,0,0,0,0,0,0,0,0,0,0,0,0],"sum_hessian":[2.89E2,2.73E2,1.6E1,9.2E1,1.81E2,1.2E1,4E0,1.6E1,7.6E1,1.6E1,1.65E2,4E0,8E0,2E0,2E0],"tree_param":{"num_deleted":"0","num_feature":"36","num_nodes":"15","size_leaf_vector":"1"}},{"base_weights":[1.2986055E-1,6.8315715E-1,-1.0790627E-1,8.152827E-1,-1.6467578E0,-1.7546251E0,2.3356635E-2,1.2280729E-1,4.4399113E-3,-2.1304828E-1,3.6136266E-2,6.09826E-3,-2.0978466E-1,-7.3188376E-3,1.4340784E-1],"categories":[],"categories_nodes":[],"categories_segments":[],"categories_sizes":[],"default_left":[1,1,0,0,0,0,1,0,0,0,0,0,0,0,0],"id":73,"left_children":[1,3,5,7,9,11,13,-1,-1,-1,-1,-1,-1,-1,-1],"loss_changes":[3.809328E1,2.812476E1,4.3920063E1,3.063049E1,6.9675655E0,1.2696903E1,2.8465467E1,0E0,0E0,0E0,0E0,0E0,0E0,0E0,0E0],"parents":[2147483647,0,0,1,1,2,2,3,3,4,4,5,5,6,6],"right_children":[2,4,6,8,10,12,14,-1,-1,-1,-1,-1,-1,-1,-1],"split_conditions":[7.27E2,5.95E0,3.21E2,5.8E2,4.4E2,3E2,9.124E1,1.2280729E-1,4.4399113E-3,-2.1304828E-1,3.6136266E-2,6.09826E-3,-2.0978466E-1,-7.3188376E-3,1.4340784E-1],"split_indices":[5,8,6,0,0,0,24,0,0,0,0,0,0,0,0],"split_type":[0,0,0,0,0,0,0,0,0,0,0,0,0,0,0],"sum_hessian":[2.88E2,8.6E1,2.02E2,8.2E1,4E0,1.4E1,1.88E2,5E1,3.2E1,3E0,1E0,3E0,1.1E1,1.77E2,1.1E1],"tree_param":{"num_deleted":"0","num_feature":"36","num_nodes":"15","size_leaf_vector":"1"}},{"base_weights":[-1.1303069E-1,-8.667995E-1,1.14967234E-1,-1.0410966E0,1.0787373E0,1.6710192E-1,-2.6220447E-1,-7.3025644E-2,-2.2437525E-1,-1.6988975E-1,2.8068745E-1,-3.835102E-3,7.7487595E-2],"categories":[],"categories_nodes":[],"categories_segments":[],"categories_sizes":[],"default_left":[1,0,1,0,0,1,0,0,0,0,0,0,0],"id":74,"left_children":[1,3,5,7,9,11,-1,-1,-1,-1,-1,-1,-1],"loss_changes":[4.9594677E1,2.3842869E1,3.3831463E1,2.041146E1,3.7792618E1,2.9626791E1,0E0,0E0,0E0,0E0,0E0,0E0,0E0],"parents":[2147483647,0,0,1,1,2,2,3,3,4,4,5,5],"right_children":[2,4,6,8,10,12,-1,-1,-1,-1,-1,-1,-1],"split_conditions":[2.84E1,1.3272828E0,6.63E0,1.11E3,2E-1,1.9E2,-2.6220447E-1,-7.3025644E-2,-2.2437525E-1,-1.6988975E-1,2.8068745E-1,-3.835102E-3,7.7487595E-2],"split_indices":[24,1,22,5,27,7,0,0,0,0,0,0,0],"split_type":[0,0,0,0,0,0,0,0,0,0,0,0,0],"sum_hessian":[2.87E2,6.6E1,2.21E2,6.1E1,5E0,2.18E2,3E0,5.2E1,9E0,2E0,3E0,1.66E2,5.2E1],"tree_param":{"num_deleted":"0","num_feature":"36","num_nodes":"13","size_leaf_vector":"1"}},{"base_weights":[-4.2993814E-2,1.379724E-1,-7.520489E-1,-8.5144645E-1,2.8126073E-1,-9.7824454E-1,9.5360076E-1,8.983022E-3,-1.4245176E-1,4.0307887E-2,-1.0478253E-1,3.4315675E-2,-1.348006E-1,-3.827989E-3,1.22349896E-1],"categories":[],"categories_nodes":[],"categories_segments":[],"categories_sizes":[],"default_left":[0,0,0,0,0,0,0,0,0,0,0,0,0,0,0],"id":75,"left_children":[1,3,5,7,9,11,13,-1,-1,-1,-1,-1,-1,-1,-1],"loss_changes":[4.039468E1,3.582429E1,2.5624722E1,1.9899403E1,4.4510807E1,3.450831E1,2.7405977E0,0E0,0E0,0E0,0E0,0E0,0E0,0E0,0E0],"parents":[2147483647,0,0,1,1,2,2,3,3,4,4,5,5,6,6],"right_children":[2,4,6,8,10,12,14,-1,-1,-1,-1,-1,-1,-1,-1],"split_conditions":[1E0,2.73E2,1E0,3E2,1E3,1E2,3E2,8.983022E-3,-1.4245176E-1,4.0307887E-2,-1.0478253E-1,3.4315675E-2,-1.348006E-1,-3.827989E-3,1.22349896E-1],"split_indices":[18,2,33,0,0,0,0,0,0,0,0,0,0,0,0],"split_type":[0,0,0,0,0,0,0,0,0,0,0,0,0,0,0],"sum_hessian":[3.13E2,2.5E2,6.3E1,3.1E1,2.19E2,5.6E1,7E0,1.3E1,1.8E1,1.99E2,2E1,1.4E1,4.2E1,2E0,5E0],"tree_param":{"num_deleted":"0","num_feature":"36","num_nodes":"15","size_leaf_vector":"1"}},{"base_weights":[-7.483339E-2,-3.393147E-2,-3.7665933E-1,-1.2599549E-1,1.2060261E0,-3.7286434E-2,4.532738E-2,-1.833201E-1,2.2564423E-1],"categories":[],"categories_nodes":[],"categories_segments":[],"categories_sizes":[],"default_left":[1,1,0,1,0,0,0,0,0],"id":76,"left_children":[1,3,-1,5,7,-1,-1,-1,-1],"loss_changes":[4.61446E1,3.3028732E1,0E0,4.3712227E1,7.850484E1,0E0,0E0,0E0,0E0],"parents":[2147483647,0,0,1,1,3,3,4,4],"right_children":[2,4,-1,6,8,-1,-1,-1,-1],"split_conditions":[6E2,1.17E2,-3.7665933E-1,1.9E2,5E1,-3.7286434E-2,4.532738E-2,-1.833201E-1,2.2564423E-1],"split_indices":[2,3,0,7,0,0,0,0,0],"split_type":[0,0,0,0,0,0,0,0,0],"sum_hessian":[2.89E2,2.87E2,2E0,2.68E2,1.9E1,1.86E2,8.2E1,5E0,1.4E1],"tree_param":{"num_deleted":"0","num_feature":"36","num_nodes":"9","size_leaf_vector":"1"}},{"base_weights":[2.6279843E-1,3.3042127E-1,-1.3426027E0,4.3087345E-1,-7.632074E-1,-2.1870716E0,2.7706796E-1,2.9077153E-3,7.81131E-2,-1.08272046E-1,1.3467328E-1,-1.4806737E-2,-3.9581895E-1,-3.932067E-2,1.4425239E-1],"categories":[],"categories_nodes":[],"categories_segments":[],"categories_sizes":[],"default_left":[1,1,0,1,0,0,0,0,0,0,0,0,0,0,0],"id":77,"left_children":[1,3,5,7,9,11,13,-1,-1,-1,-1,-1,-1,-1,-1],"loss_changes":[3.2143658E1,3.1198774E1,1.7019106E1,4.0631023E1,2.1544014E1,3.1703587E1,4.943924E0,0E0,0E0,0E0,0E0,0E0,0E0,0E0,0E0],"parents":[2147483647,0,0,1,1,2,2,3,3,4,4,5,5,6,6],"right_children":[2,4,6,8,10,12,14,-1,-1,-1,-1,-1,-1,-1,-1],"split_conditions":[4E0,1E0,4.4E2,4.7E1,8.521E1,3E2,5E1,2.9077153E-3,7.81131E-2,-1.08272046E-1,1.3467328E-1,-1.4806737E-2,-3.9581895E-1,-3.932067E-2,1.4425239E-1],"split_indices":[27,18,0,24,24,0,12,0,0,0,0,0,0,0,0],"split_type":[0,0,0,0,0,0,0,0,0,0,0,0,0,0,0],"sum_hessian":[2.91E2,2.8E2,1.1E1,2.57E2,2.3E1,7E0,4E0,1.28E2,1.29E2,2E1,3E0,4E0,3E0,3E0,1E0],"tree_param":{"num_deleted":"0","num_feature":"36","num_nodes":"15","size_leaf_vector":"1"}},{"base_weights":[-2.1670952E-2,1.9934812E-1,-9.1339034E-1,9.699795E-2,1.9823931E0,-1.1069778E0,8.5207015E-1,1.035541E-1,-7.639434E-3,-1.8633299E-1,3.3318284E-1,-5.6973655E-2,-2.0304228E-1,-4.6556644E-2,1.1547436E-1],"categories":[],"categories_nodes":[],"categories_segments":[],"categories_sizes":[],"default_left":[0,0,1,0,0,0,0,0,0,0,0,0,0,0,0],"id":78,"left_children":[1,3,5,7,9,11,13,-1,-1,-1,-1,-1,-1,-1,-1],"loss_changes":[5.457809E1,4.0321594E1,1.9740627E1,3.7431377E1,7.967442E1,2.4910057E1,3.5578923E0,0E0,0E0,0E0,0E0,0E0,0E0,0E0,0E0],"parents":[2147483647,0,0,1,1,2,2,3,3,4,4,5,5,6,6],"right_children":[2,4,6,8,10,12,14,-1,-1,-1,-1,-1,-1,-1,-1],"split_conditions":[1E0,1.17E2,2.5E1,7.197E2,5E1,6.91E1,2.3E1,1.035541E-1,-7.639434E-3,-1.8633299E-1,3.3318284E-1,-5.6973655E-2,-2.0304228E-1,-4.6556644E-2,1.1547436E-1],"split_indices":[18,3,15,5,0,24,0,0,0,0,0,0,0,0,0],"split_type":[0,0,0,0,0,0,0,0,0,0,0,0,0,0,0],"sum_hessian":[2.75E2,2.21E2,5.4E1,2.1E2,1.1E1,4.9E1,5E0,3.1E1,1.79E2,3E0,8E0,3.4E1,1.5E1,1E0,4E0],"tree_param":{"num_deleted":"0","num_feature":"36","num_nodes":"15","size_leaf_vector":"1"}},{"base_weights":[-3.056598E-2,1.0329382E-2,-3.699306E-1,-4.4335805E-2,2.42455E-1,-1.5340852E-2,8.915577E-2],"categories":[],"categories_nodes":[],"categories_segments":[],"categories_sizes":[],"default_left":[1,1,0,1,0,0,0],"id":79,"left_children":[1,3,-1,5,-1,-1,-1],"loss_changes":[4.5519577E1,3.983082E1,0E0,3.2611126E1,0E0,0E0,0E0],"parents":[2147483647,0,0,1,1,3,3],"right_children":[2,4,-1,6,-1,-1,-1],"split_conditions":[2.4E2,2.1E2,-3.699306E-1,6.212121E-1,2.42455E-1,-1.5340852E-2,8.915577E-2],"split_indices":[9,26,0,1,0,0,0],"split_type":[0,0,0,0,0,0,0],"sum_hessian":[2.86E2,2.84E2,2E0,2.79E2,5E0,2.5E2,2.9E1],"tree_param":{"num_deleted":"0","num_feature":"36","num_nodes":"7","size_leaf_vector":"1"}},{"base_weights":[-2.1699046E-1,-7.252924E-1,4.5116384E-2,-8.365988E-1,1.0265363E-1,-3.3269796E-1,1.1159548E0,-1.6719545E-1,-5.0470404E-2,-1.5662049E-1,-1.39664225E-2,3.0107984E-2,1.5680335E-1],"categories":[],"categories_nodes":[],"categories_segments":[],"categories_sizes":[],"default_left":[1,1,1,1,0,0,0,0,0,0,0,0,0],"id":80,"left_children":[1,3,5,7,-1,9,11,-1,-1,-1,-1,-1,-1],"loss_changes":[3.7603424E1,2.0236874E1,7.6027374E1,2.4726788E1,0E0,3.3766167E1,2.0570068E1,0E0,0E0,0E0,0E0,0E0,0E0],"parents":[2147483647,0,0,1,1,2,2,3,3,5,5,6,6],"right_children":[2,4,6,8,-1,10,12,-1,-1,-1,-1,-1,-1],"split_conditions":[3.31E1,2.1E2,4.7252747E-1,2.1E1,1.0265363E-1,4.86E1,3.85E1,-1.6719545E-1,-5.0470404E-2,-1.5662049E-1,-1.39664225E-2,3.0107984E-2,1.5680335E-1],"split_indices":[24,26,1,24,0,24,24,0,0,0,0,0,0],"split_type":[0,0,0,0,0,0,0,0,0,0,0,0,0],"sum_hessian":[2.81E2,9.5E1,1.86E2,9E1,5E0,1.38E2,4.8E1,2.1E1,6.9E1,1.6E1,1.22E2,2E1,2.8E1],"tree_param":{"num_deleted":"0","num_feature":"36","num_nodes":"13","size_leaf_vector":"1"}},{"base_weights":[1.3312496E-1,3.5143796E-1,-5.6803876E-1,2.5374886E-1,3.809672E0,-2.8948933E-1,-2.9938352E0,-6.781239E-2,4.5941755E-2,6.2208977E-2,4.9463263E-1,3.951245E-2,-5.9471723E-2,-7.075914E-2,-3.5455918E-1],"categories":[],"categories_nodes":[],"categories_segments":[],"categories_sizes":[],"default_left":[0,1,1,0,0,1,0,0,0,0,0,0,0,0,0],"id":81,"left_children":[1,3,5,7,9,11,13,-1,-1,-1,-1,-1,-1,-1,-1],"loss_changes":[4.443777E1,7.369411E1,4.5756905E1,4.8785484E1,2.3287125E1,1.53252125E1,8.9889145E0,0E0,0E0,0E0,0E0,0E0,0E0,0E0,0E0],"parents":[2147483647,0,0,1,1,2,2,3,3,4,4,5,5,6,6],"right_children":[2,4,6,8,10,12,14,-1,-1,-1,-1,-1,-1,-1,-1],"split_conditions":[8E2,1.308E3,8.761E1,2.99E1,2.3E1,3.23E1,4.37E2,-6.781239E-2,4.5941755E-2,6.2208977E-2,4.9463263E-1,3.951245E-2,-5.9471723E-2,-7.075914E-2,-3.5455918E-1],"split_indices":[0,5,24,24,0,24,6,0,0,0,0,0,0,0,0],"split_type":[0,0,0,0,0,0,0,0,0,0,0,0,0,0,0],"sum_hessian":[2.88E2,2.2E2,6.8E1,2.15E2,5E0,6.2E1,6E0,4.1E1,1.74E2,2E0,3E0,2E1,4.2E1,2E0,4E0],"tree_param":{"num_deleted":"0","num_feature":"36","num_nodes":"15","size_leaf_vector":"1"}},{"base_weights":[1.0926991E-2,-3.3216202E-1,4.7153696E-2,-9.656371E-1,1.4597102E-1,7.3056996E-2,-1.6864754E-1,7.4701887E-3,1.3695872E-1],"categories":[],"categories_nodes":[],"categories_segments":[],"categories_sizes":[],"default_left":[0,0,0,0,1,0,0,0,0],"id":82,"left_children":[1,-1,3,5,7,-1,-1,-1,-1],"loss_changes":[3.7503002E1,0E0,2.9264606E1,3.816993E1,2.3090223E1,0E0,0E0,0E0,0E0],"parents":[2147483647,0,0,2,2,3,3,4,4],"right_children":[2,-1,4,6,8,-1,-1,-1,-1],"split_conditions":[2.1E1,-3.3216202E-1,3.21E2,3E2,7.8E1,7.3056996E-2,-1.6864754E-1,7.4701887E-3,1.3695872E-1],"split_indices":[24,0,6,0,14,0,0,0,0],"split_type":[0,0,0,0,0,0,0,0,0],"sum_hessian":[2.92E2,2E0,2.9E2,2.5E1,2.65E2,8E0,1.7E1,2.53E2,1.2E1],"tree_param":{"num_deleted":"0","num_feature":"36","num_nodes":"9","size_leaf_vector":"1"}},{"base_weights":[1.2879863E-2,-8.655791E-2,1.4933014E0,-2.1482356E-2,-2.06536E0,1.8260654E0,4.679683E-1,2.5536988E-3,-1.7807557E-1,-5.8508042E-2,-2.54447E-1,1.8808433E-1,8.8157795E-2,-5.2041173E-2,1.0552119E-1],"categories":[],"categories_nodes":[],"categories_segments":[],"categories_sizes":[],"default_left":[1,1,0,1,0,0,0,0,0,0,0,0,0,0,0],"id":83,"left_children":[1,3,5,7,9,11,13,-1,-1,-1,-1,-1,-1,-1,-1],"loss_changes":[4.4439407E1,3.6398003E1,5.6281433E0,2.4808937E1,6.430416E0,1.5232849E-1,4.5556593E0,0E0,0E0,0E0,0E0,0E0,0E0,0E0,0E0],"parents":[2147483647,0,0,1,1,2,2,3,3,4,4,5,5,6,6],"right_children":[2,4,6,8,10,12,14,-1,-1,-1,-1,-1,-1,-1,-1],"split_conditions":[1.5E1,5.95E0,8.75E1,6.35E0,3E2,8E2,2.2E1,2.5536988E-3,-1.7807557E-1,-5.8508042E-2,-2.54447E-1,1.8808433E-1,8.8157795E-2,-5.2041173E-2,1.0552119E-1],"split_indices":[8,8,24,16,0,0,8,0,0,0,0,0,0,0,0],"split_type":[0,0,0,0,0,0,0,0,0,0,0,0,0,0,0],"sum_hessian":[3E2,2.82E2,1.8E1,2.74E2,8E0,1.3E1,5E0,2.68E2,6E0,3E0,5E0,1E1,3E0,2E0,3E0],"tree_param":{"num_deleted":"0","num_feature":"36","num_nodes":"15","size_leaf_vector":"1"}},{"base_weights":[9.748989E-3,-7.443957E-2,1.6747833E0,-3.363491E-2,-2.287486E0,3.3013475E0,-4.2340177E-1,-7.940812E-4,-3.268891E-1,-1.4200488E-3,-2.701339E-1,-9.843576E-2,3.8550743E-1,7.949342E-2,-7.328749E-2],"categories":[],"categories_nodes":[],"categories_segments":[],"categories_sizes":[],"default_left":[1,1,0,1,0,0,0,0,0,0,0,0,0,0,0],"id":84,"left_children":[1,3,5,7,9,11,13,-1,-1,-1,-1,-1,-1,-1,-1],"loss_changes":[4.077596E1,2.4936886E1,4.9177452E1,2.35296E1,6.3699455E0,3.0916489E1,3.7455072E0,0E0,0E0,0E0,0E0,0E0,0E0,0E0,0E0],"parents":[2147483647,0,0,1,1,2,2,3,3,4,4,5,5,6,6],"right_children":[2,4,6,8,10,12,14,-1,-1,-1,-1,-1,-1,-1,-1],"split_conditions":[2.54E2,2.54E1,5.8E2,6E2,2.3E1,2.5E1,7.173E2,-7.940812E-4,-3.268891E-1,-1.4200488E-3,-2.701339E-1,-9.843576E-2,3.8550743E-1,7.949342E-2,-7.328749E-2],"split_indices":[21,23,0,2,0,0,5,0,0,0,0,0,0,0,0],"split_type":[0,0,0,0,0,0,0,0,0,0,0,0,0,0,0],"sum_hessian":[2.89E2,2.76E2,1.3E1,2.72E2,4E0,7E0,6E0,2.71E2,1E0,1E0,3E0,1E0,6E0,1E0,5E0],"tree_param":{"num_deleted":"0","num_feature":"36","num_nodes":"15","size_leaf_vector":"1"}},{"base_weights":[-2.8208818E-2,7.85512E-2,-1.6342298E0,2.825286E-1,-7.468977E-1,-2.1579738E0,5.435028E-2,-2.01617E-2,4.8535988E-2,-1.748218E-2,-1.5953769E-1,-2.2526176E-1,-1.0116989E-1,1.3787006E-1,-1.2928979E-1],"categories":[],"categories_nodes":[],"categories_segments":[],"categories_sizes":[],"default_left":[1,0,0,1,0,0,0,0,0,0,0,0,0,0,0],"id":85,"left_children":[1,3,5,7,9,11,13,-1,-1,-1,-1,-1,-1,-1,-1],"loss_changes":[4.6765167E1,4.3314487E1,1.515181E1,2.356754E1,2.6572206E1,5.7940674E-1,1.1930062E1,0E0,0E0,0E0,0E0,0E0,0E0,0E0,0E0],"parents":[2147483647,0,0,1,1,2,2,3,3,4,4,5,5,6,6],"right_children":[2,4,6,8,10,12,14,-1,-1,-1,-1,-1,-1,-1,-1],"split_conditions":[2E0,1.25E3,4.7252747E-1,2.84E1,6.1E1,4.5238096E-1,4E0,-2.01617E-2,4.8535988E-2,-1.748218E-2,-1.5953769E-1,-2.2526176E-1,-1.0116989E-1,1.3787006E-1,-1.2928979E-1],"split_indices":[27,5,1,24,24,1,27,0,0,0,0,0,0,0,0],"split_type":[0,0,0,0,0,0,0,0,0,0,0,0,0,0,0],"sum_hessian":[2.71E2,2.55E2,1.6E1,2.05E2,5E1,1.2E1,4E0,6.5E1,1.4E2,3.2E1,1.8E1,9E0,3E0,2E0,2E0],"tree_param":{"num_deleted":"0","num_feature":"36","num_nodes":"15","size_leaf_vector":"1"}},{"base_weights":[6.311162E-2,-3.8050987E-2,1.8611261E0,2.8153151E-2,-2.0714393E0,-1.3892794E0,2.7180872E0,-2.0103853E-2,4.5808163E-2,-2.930236E-1,-6.0155794E-2,4.8460882E-2,-2.0776759E-1,4.0303183E-1,-5.605474E-2],"categories":[],"categories_nodes":[],"categories_segments":[],"categories_sizes":[],"default_left":[1,1,0,0,0,0,0,0,0,0,0,0,0,0,0],"id":86,"left_children":[1,3,5,7,9,11,13,-1,-1,-1,-1,-1,-1,-1,-1],"loss_changes":[5.4638363E1,3.8424656E1,4.834373E1,3.0430874E1,1.1247986E1,7.2367363E0,6.864413E1,0E0,0E0,0E0,0E0,0E0,0E0,0E0,0E0],"parents":[2147483647,0,0,1,1,2,2,3,3,4,4,5,5,6,6],"right_children":[2,4,6,8,10,12,14,-1,-1,-1,-1,-1,-1,-1,-1],"split_conditions":[1.17E2,4E0,5E1,1E0,7.5E2,2.3E1,8E2,-2.0103853E-2,4.5808163E-2,-2.930236E-1,-6.0155794E-2,4.8460882E-2,-2.0776759E-1,4.0303183E-1,-5.605474E-2],"split_indices":[3,27,0,33,5,0,0,0,0,0,0,0,0,0,0],"split_type":[0,0,0,0,0,0,0,0,0,0,0,0,0,0,0],"sum_hessian":[2.99E2,2.84E2,1.5E1,2.76E2,8E0,3E0,1.2E1,1.81E2,9.5E1,4E0,4E0,1E0,2E0,8E0,4E0],"tree_param":{"num_deleted":"0","num_feature":"36","num_nodes":"15","size_leaf_vector":"1"}},{"base_weights":[2.3954246E-2,5.8247186E-2,-3.22234E-1,-1.5095515E-2,1.2757611E0,6.057345E-2,-1.309816E-2,-1.4263885E-1,1.8749137E-1],"categories":[],"categories_nodes":[],"categories_segments":[],"categories_sizes":[],"default_left":[1,1,0,0,0,0,0,0,0],"id":87,"left_children":[1,3,-1,5,7,-1,-1,-1,-1],"loss_changes":[3.5560352E1,2.6718693E1,0E0,2.2907982E1,3.6253548E1,0E0,0E0,0E0,0E0],"parents":[2147483647,0,0,1,1,3,3,4,4],"right_children":[2,4,-1,6,8,-1,-1,-1,-1],"split_conditions":[6E2,1.17E2,-3.22234E-1,7.197E2,1.11E3,6.057345E-2,-1.309816E-2,-1.4263885E-1,1.8749137E-1],"split_indices":[2,3,0,5,5,0,0,0,0],"split_type":[0,0,0,0,0,0,0,0,0],"sum_hessian":[3E2,2.98E2,2E0,2.82E2,1.6E1,4.4E1,2.38E2,3E0,1.3E1],"tree_param":{"num_deleted":"0","num_feature":"36","num_nodes":"9","size_leaf_vector":"1"}},{"base_weights":[3.8961943E-2,-1.2281928E-1,1.3522168E0,-7.834442E-2,-2.7939418E-1,2.229122E0,-1.1364428E0,-8.817788E-2,3.6402368E-3,2.9207376E-1,1.058803E-1,9.9037245E-2,-2.2749396E-1],"categories":[],"categories_nodes":[],"categories_segments":[],"categories_sizes":[],"default_left":[1,1,0,0,0,0,0,0,0,0,0,0,0],"id":88,"left_children":[1,3,5,7,-1,9,11,-1,-1,-1,-1,-1,-1],"loss_changes":[6.1991936E1,3.2456577E1,7.236746E1,2.5622396E1,0E0,1.9340614E1,2.7358292E1,0E0,0E0,0E0,0E0,0E0,0E0],"parents":[2147483647,0,0,1,1,2,2,3,3,5,5,6,6],"right_children":[2,4,6,8,-1,10,12,-1,-1,-1,-1,-1,-1],"split_conditions":[8.521E1,2.4E2,8E2,3.41E2,-2.7939418E-1,4.4E2,8.761E1,-8.817788E-2,3.6402368E-3,2.9207376E-1,1.058803E-1,9.9037245E-2,-2.2749396E-1],"split_indices":[24,9,0,6,0,0,24,0,0,0,0,0,0],"split_type":[0,0,0,0,0,0,0,0,0,0,0,0,0],"sum_hessian":[2.9E2,2.59E2,3.1E1,2.56E2,3E0,2.3E1,8E0,3E1,2.26E2,1.2E1,1.1E1,3E0,5E0],"tree_param":{"num_deleted":"0","num_feature":"36","num_nodes":"13","size_leaf_vector":"1"}},{"base_weights":[1.1570142E-1,4.238924E-1,-2.968873E-1,7.8094065E-1,-1.6330382E-1,-4.6563926E-1,1.4153727E0,4.5240317E-2,1.9221827E-1,1.5255281E-1,-4.7622237E-2,3.733542E-2,-6.815207E-2,2.2229287E-1,7.995898E-2],"categories":[],"categories_nodes":[],"categories_segments":[],"categories_sizes":[],"default_left":[0,0,1,0,0,0,0,0,0,0,0,0,0,0,0],"id":89,"left_children":[1,3,5,7,9,11,13,-1,-1,-1,-1,-1,-1,-1,-1],"loss_changes":[3.8908466E1,3.681757E1,3.8511135E1,4.0304756E1,4.1152863E1,2.6475441E1,4.40362E0,0E0,0E0,0E0,0E0,0E0,0E0,0E0,0E0],"parents":[2147483647,0,0,1,1,2,2,3,3,4,4,5,5,6,6],"right_children":[2,4,6,8,10,12,14,-1,-1,-1,-1,-1,-1,-1,-1],"split_conditions":[4.5E2,5.8E2,1.5E1,2.18E2,1E0,1E2,8.584E1,4.5240317E-2,1.9221827E-1,1.5255281E-1,-4.7622237E-2,3.733542E-2,-6.815207E-2,2.2229287E-1,7.995898E-2],"split_indices":[2,0,11,7,29,0,24,0,0,0,0,0,0,0,0],"split_type":[0,0,0,0,0,0,0,0,0,0,0,0,0,0,0],"sum_hessian":[3.04E2,1.74E2,1.3E2,1.08E2,6.6E1,1.19E2,1.1E1,8.8E1,2E1,1E1,5.6E1,2.7E1,9.2E1,3E0,8E0],"tree_param":{"num_deleted":"0","num_feature":"36","num_nodes":"15","size_leaf_vector":"1"}},{"base_weights":[-1.0445679E-1,-3.1036615E-1,4.8171857E-1,-3.974529E-1,1.0600027E0,1.8401597E-1,1.7657074E0,-2.611903E-2,-1.4067432E-1,-7.708903E-2,3.2033065E-1,1.1405497E-1,-2.1606836E-2,6.1548445E-2,2.9793024E-1],"categories":[],"categories_nodes":[],"categories_segments":[],"categories_sizes":[],"default_left":[1,1,0,1,1,0,0,0,0,0,0,0,0,0,0],"id":90,"left_children":[1,3,5,7,9,11,13,-1,-1,-1,-1,-1,-1,-1,-1],"loss_changes":[3.4790123E1,2.5840918E1,2.8343592E1,2.6198792E1,5.9311295E1,2.6339607E1,1.95098E1,0E0,0E0,0E0,0E0,0E0,0E0,0E0,0E0],"parents":[2147483647,0,0,1,1,2,2,3,3,4,4,5,5,6,6],"right_children":[2,4,6,8,10,12,14,-1,-1,-1,-1,-1,-1,-1,-1],"split_conditions":[2.9E1,1.17E2,2.05E2,1.1223E3,3.9E1,1.6E2,3.6E2,-2.611903E-2,-1.4067432E-1,-7.708903E-2,3.2033065E-1,1.1405497E-1,-2.1606836E-2,6.1548445E-2,2.9793024E-1],"split_indices":[26,3,7,5,24,7,2,0,0,0,0,0,0,0,0],"split_type":[0,0,0,0,0,0,0,